BIGRAM: method Katz, cutoff 1
  coef[7]: 0.000000 0.549186 0.721380 0.746292 0.783686 0.902404 0.881011

TRIGRAM: method Katz, cutoff 1
  coef[7]: 0.000000 0.444682 0.649468 0.775338 0.740030 0.817584 0.846576

\data\
ngram 1=6974
ngram 2=16024
ngram 3=16466

\1-grams:
-2.7909	!SILENCE	-0.3020
-5.3001	&
-0.9356	</s>	-0.2925
-3.0078	<BREATH>	-0.5177
-4.9990	<COUGH>
-2.5292	<LAUGH>	-0.6913
-0.9356	<s>	-0.8174
-3.2872	<SIGH>	-0.3847
-1.8237	A	-0.3610
-5.3001	AA
-5.3001	AAHH
-5.3001	AB
-5.3001	ABILITIES
-4.8229	ABILITY	-0.5480
-3.5007	ABLE	-0.3390
-5.3001	ABOARD
-5.3001	ABOOT
-2.5234	ABOUT	-0.4448
-4.3458	ABOVE	-0.2400
-4.6980	ABROAD	-0.0859
-4.9990	ABSOLU	-0.2925
-4.4550	ABSOLUTE	-0.0206
-3.7560	ABSOLUTELY	-0.0843
-5.3001	ABSOLUTLEY
-5.3001	ABSOLUTLY
-5.3001	ABSORB
-5.3001	ABSTRACT
-4.6980	ABSURD
-4.9990	AC	-0.2925
-4.6011	ACADEMIC	-0.1074
-4.9990	ACADEMICALLY
-4.8229	ACADEMY
-4.4550	ACCENT	-0.0206
-4.3458	ACCEPT	-0.7876
-4.9990	ACCEPTABLE
-4.9990	ACCESS
-5.3001	ACCESSORIES
-4.4550	ACCIDENT	-0.1879
-5.3001	ACCIDENTALLY
-5.3001	ACCIDENTLY
-5.3001	ACCLIMATED
-4.8229	ACCOMMODATION
-5.3001	ACCOMPANY
-5.3001	ACCOMPLISHED
-5.3001	ACCOMPLISHMENT
-4.8229	ACCORDING	-0.5480
-4.5219	ACCOUNT	-0.0859
-5.3001	ACCOUNTING
-5.3001	ACCUMULATED
-5.3001	ACE
-4.9990	ACH
-5.3001	ACHE
-5.3001	ACHES
-4.9990	ACHIEVE
-5.3001	ACHIEVED
-5.3001	ACID
-4.9990	ACOUSTIC	-0.2925
-5.3001	ACQUIRE
-4.1861	ACROSS	-0.1524
-4.5219	ACT	-0.2453
-4.6011	ACTION	-0.1927
-4.9990	ACTIONS
-5.3001	ACTIVATION
-4.6980	ACTIVE	-0.1393
-5.3001	ACTIVELY
-5.3001	ACTIVES
-4.6980	ACTIVITIES	-0.1319
-4.6011	ACTIVITY
-5.3001	ACTOR
-4.6011	ACTORS
-5.3001	ACTS
-4.4550	ACTUAL
-2.7660	ACTUALLY	-0.1543
-5.3001	ACUPUNCTURE
-5.3001	ADAPT
-4.6011	ADD
-4.8229	ADDED	-0.1910
-5.3001	ADDICT
-4.9990	ADDICTED	-0.3390
-4.9990	ADDING
-4.9990	ADDITIONAL
-4.5219	ADDRESS	-0.1407
-5.3001	ADEQUATE
-5.3001	ADHERE
-4.9990	ADJUST
-5.3001	ADJUSTING
-5.3001	ADMINISTRATION
-4.9990	ADMINISTRATOR
-5.3001	ADMIRABLE
-4.4550	ADMIT
-5.3001	ADMITS
-5.3001	ADOPT
-5.3001	ADOPTION
-4.9990	ADORABLE
-4.8229	ADRENALIN
-5.3001	ADS
-4.8229	ADVANCED
-4.4550	ADVANTAGE	-0.3521
-5.3001	ADVENTURE
-5.3001	ADVENTURING
-5.3001	ADVERTISED
-5.3001	ADVERTISING
-4.9990	ADVICE
-4.9990	ADVISE	-0.3377
-4.9990	AE	-0.2925
-5.3001	AF
-5.3001	AFFECT
-5.3001	AFFECTED
-5.3001	AFFINITIES
-4.3458	AFFORD	-0.1827
-5.3001	AFFORDABLE
-4.1539	AFRAID	-0.1932
-5.3001	AFRESH
-5.3001	AFRICA
-5.3001	AFRICAN
-3.3556	AFTER	-0.1795
-4.2587	AFTERNOON	-0.1395
-5.3001	AFTERNOONS
-5.3001	AFTERNOON_S
-4.3970	AFTERWARDS
-3.2957	AGAIN	-0.4179
-4.4550	AGAINST	-0.1006
-4.9990	AGATHA
-4.2209	AGE
-4.8229	AGENCY
-5.3001	AGENDA
-4.9990	AGENDAS	-0.2925
-5.3001	AGENT
-4.6011	AGES	-0.2421
-5.3001	AGGRAVATION
-5.3001	AGGRE
-4.6980	AGGRESSION
-4.4550	AGGRESSIVE	-0.0206
-5.3001	AGGRESSIVELY
-3.7949	AGO	-0.2642
-3.9199	AGREE	-0.6438
-5.3001	AGREED
-4.9990	AGREEING
-5.3001	AGREES
-5.3001	AGUA
-2.8545	AH	-0.3726
-3.2432	AHA	-0.7387
-5.3001	AHAT
-4.2587	AHEAD	-0.1377
-4.9990	AHH
-5.3001	AHHH
-4.9990	AHM
-5.3001	AID
-5.3001	AIMED
-5.3001	AIMLESS
-4.2209	AIR	-0.0707
-5.3001	AIRBRUSH
-4.9990	AIRED
-4.6011	AIRHEAD	-0.0542
-5.3001	AIRLINE
-4.9990	AIRPLANES
-5.3001	AIRPORT
-5.3001	AIRWAYS
-5.3001	ALARM
-4.9990	ALBUM
-5.3001	ALCOHOL
-5.3001	ALEX_S
-5.3001	ALGORITHM
-5.3001	ALGORITHMS
-5.3001	ALIENS
-5.3001	ALIGN
-4.6980	ALIGNMENT
-5.3001	ALIGNS
-4.6011	ALIVE	-0.0542
-2.4973	ALL	-0.4009
-4.9990	ALLERGIC
-5.3001	ALLERGIES
-5.3001	ALLEY
-4.4550	ALLIGATOR	-0.6448
-5.3001	ALLIGATOR_S
-5.3001	ALLOCATE
-5.3001	ALLOTMENT
-5.3001	ALLOTTED
-4.9990	ALLOW
-4.2587	ALLOWED	-0.7334
-5.3001	ALLOWING
-5.3001	ALLOWS
-3.9990	ALMOST	-0.0180
-4.5219	ALONE	-0.0343
-3.9021	ALONG	-0.1860
-5.3001	ALPHABET
-3.9199	ALREADY	-0.1004
-3.4939	ALRIGHT	-0.3315
-3.4872	ALSO	-0.0892
-4.9990	ALTERNATIVE
-4.9990	ALTERNATIVES	-0.3404
-4.0959	ALTHOUGH	-0.2618
-5.3001	ALTOGETHER
-4.9990	ALVEOLAR
-2.9990	ALWAYS	-0.1449
-3.2209	AM	-0.2406
-3.6980	AMAZING	-0.3782
-5.3001	AMAZINGLY
-4.4550	AMBIENT	-0.5477
-5.3001	AMBITIOUS
-4.6011	AMERICA
-3.9778	AMERICAN	-0.1547
-5.3001	AMERICANIZED
-4.3458	AMERICANS	-0.1400
-5.3001	AMOCK
-4.9990	AMONG
-4.1861	AMOUNT	-1.1098
-5.3001	AMOUNTS
-4.6011	AMPERSAND	-0.1927
-5.3001	AMPLE
-4.9990	AMSTERDAM
-2.5942	AN	-0.1877
-4.9990	ANALYSIS
-5.3001	ANALYZE
-4.9990	ANAXAGORAS
-5.3001	ANCESTORS
-5.3001	ANCIENT
-1.7655	AND	-0.4149
-5.3001	ANDOH
-5.3001	ANEMIC
-5.3001	ANGEL
-4.6011	ANGER
-5.3001	ANGLE
-3.3970	ANGRY	-0.2299
-4.9990	ANIMAL
-4.6011	ANIMALS	-0.1927
-4.9990	ANIMOSITY
-5.3001	ANIXAGARAS
-5.3001	ANKLES
-4.9990	ANN
-4.4550	ANNOTATE	-0.1083
-5.3001	ANNOTATED
-4.6980	ANNOTATING
-4.9990	ANNOTATION
-5.3001	ANNOTATORS
-3.9576	ANNOY	-0.8554
-4.9990	ANNOYANCE
-3.5147	ANNOYED	-0.3929
-5.3001	ANNOYIN
-3.6373	ANNOYING	-0.2454
-3.9576	ANNOYS	-0.7779
-3.5366	ANOTHER	-0.1961
-3.8687	ANSWER	-0.2281
-5.3001	ANSWERED
-4.8229	ANSWERING
-5.3001	ANSWERS
-5.3001	ANTAGONISTIC
-5.3001	ANTARCTIC
-5.3001	ANTHEM
-4.5219	ANTHROPOLOGY	-0.1407
-5.3001	ANTHROPOLOGY_S
-4.5219	ANXIOUS	-0.0343
-3.2032	ANY	-0.1419
-3.9021	ANYBODY	-0.0231
-5.3001	ANYHOW
-4.1539	ANYMORE	-0.3936
-4.0696	ANYONE	-0.0391
-4.9990	ANYONE_S
-3.2173	ANYTHING	-0.3203
-5.3001	ANYTIME
-3.6099	ANYWAY	-0.3474
-4.5219	ANYWAYS	-0.1407
-4.0213	ANYWHERE	-0.1623
-2.8332	AN_	-0.4431
-4.5219	APART	-0.2868
-3.9576	APARTMENT	-0.2048
-4.8229	APARTMENTS
-5.3001	APAULLING
-5.3001	APES
-5.3001	APOLOGISE
-5.3001	APOLOGIZE
-5.3001	APPALLINGLY
-4.1861	APPARENTLY	-0.1511
-5.3001	APPEAL
-4.9990	APPEAR
-5.3001	APPEARED
-5.3001	APPEARING
-5.3001	APPEARS
-5.3001	APPLICATIONS
-4.8229	APPLIED	-0.1961
-4.3001	APPLY	-0.2936
-4.8229	APPLYING	-0.1961
-5.3001	APPORTION
-5.3001	APPRAISAL
-4.3458	APPRECIATE	-0.0030
-5.3001	APPRECIATES
-5.3001	APPREHENSIVE
-3.8529	APPROACH	-0.3908
-5.3001	APPROACHING
-4.8229	APRIL	-0.1445
-5.3001	AQUARIUM
-5.3001	AQUATIC
-4.9990	AR
-4.9990	ARBORETUM
-5.3001	ARCHAEOLOGICAL
-4.8229	ARCHAEOLOGY	-0.1445
-4.8229	ARCHITECTURE
-4.9990	ARCTIC
-2.4052	ARE	-0.3523
-3.8087	AREA	-0.2840
-4.9990	AREAS
-3.7438	AREN_T	-0.2980
-5.3001	ARGUE
-4.8229	ARGUING	-0.1969
-4.6011	ARGUMENT	-0.2371
-4.8229	ARGUMENTS
-5.3001	ARISTOTLE
-4.5219	ARM
-5.3001	ARMOIRE
-5.3001	ARMOR
-4.6011	ARMS
-4.6011	ARMY
-3.1730	AROUND	-0.3327
-5.3001	ARRANGE
-5.3001	ARRANGED
-5.3001	ARRANGEMENTS
-5.3001	ARRANGES
-5.3001	ARRANGING
-4.9990	ARRESTED
-5.3001	ARRIVAL
-4.9990	ARRIVE
-4.6980	ARRIVED	-0.1382
-4.9990	ARRIVES
-5.3001	ARRIVING
-5.3001	ARROGANT
-4.9990	ARSE	-0.2925
-5.3001	ARSED
-4.0448	ART	-0.1330
-4.8229	ARTHUR	-0.5550
-4.5219	ARTICLES	-0.1407
-4.6011	ARTIFICIAL
-5.3001	ARTIST
-5.3001	ARTISTIC
-4.9990	ARTISTS
-4.9990	ARTS	-0.3460
-5.3001	ARTY
-2.7214	AS	-0.4916
-5.3001	ASCRIBE
-5.3001	ASIAN
-3.6873	ASK	-0.2769
-3.9990	ASKED	-0.2576
-4.4550	ASKING	-0.1600
-5.3001	ASKS
-4.9990	ASPECT
-4.9990	ASPECTS
-4.5219	ASS	-0.1444
-5.3001	ASSAULT
-5.3001	ASSERT
-4.3970	ASSERTIVE	-0.1683
-4.9990	ASSHOLE
-5.3001	ASSIGNMENT
-4.9990	ASSIGNMENTS
-5.3001	ASSISTANT
-5.3001	ASSISTING
-5.3001	ASSOCIATE
-5.3001	ASSOCIATION
-4.6011	ASSUME	-0.2407
-5.3001	ASSUMPTIONS
-5.3001	ASSURANCE
-5.3001	ASSURE
-4.9990	ASTERISK
-5.3001	ASTONISHING
-4.9990	ASTRONOMER
-5.3001	ASTRONOMY
-5.3001	ASYMMETRIC
-2.5669	AT	-0.6593
-4.9990	ATE	-0.3394
-5.3001	ATHLETE
-5.3001	ATHLETES
-5.3001	ATHLETIC
-4.9990	ATMOSPHERIC
-5.3001	ATOM
-5.3001	ATRIUM
-5.3001	ATTACH
-4.4550	ATTACK	-0.0730
-5.3001	ATTACKING
-4.9990	ATTACKS
-5.3001	ATTAIN
-4.9990	ATTEMPT
-5.3001	ATTEMPTED
-4.9990	ATTEMPTING	-0.3390
-5.3001	ATTEND
-5.3001	ATTENDING
-4.6011	ATTENTION	-0.1002
-5.3001	ATTIC
-5.3001	ATTIT
-4.2209	ATTITUDE	-0.1282
-4.9990	ATTITUDES
-4.9990	ATTRACTED
-5.3001	ATTRACTIVE
-5.3001	AUCTION
-5.3001	AUDIENCE
-4.3458	AUDIO	-0.1420
-5.3001	AUDIT
-4.9990	AUDITIONED
-4.6011	AUDITORIUM	-0.1927
-4.6980	AUGUST
-5.3001	AUNT
-4.9990	AUNTIES	-0.3443
-4.6011	AUNTY
-5.3001	AURORA
-5.3001	AUSE
-4.5219	AUSTRALIA	-0.0343
-5.3001	AUTHORITY
-5.3001	AUTHORS
-5.3001	AUTHOR_S
-4.6980	AUTISTIC
-5.3001	AUTOBIOGRAPHY
-4.9990	AUTOMATED	-0.3460
-4.6980	AUTOMATIC
-4.8229	AUTOMATICALLY	-0.1445
-5.3001	AUTOMOTIVE
-4.8229	AUTUMN	-0.5549
-4.8229	AVAILABLE
-4.9990	AVENUE
-5.3001	AVERAGE
-4.9990	AVERAGES
-5.3001	AVIV
-4.8229	AVOID
-5.3001	AVOIDING
-3.6768	AW	-0.3540
-5.3001	AWA
-5.3001	AWAKE
-4.8229	AWARD
-4.9990	AWARDS	-0.3460
-4.5219	AWARE	-0.4556
-3.3810	AWAY	-0.3246
-5.3001	AWE
-3.8851	AWESOME	-0.4583
-3.5597	AWFUL	-0.1978
-4.9990	AWFULLY
-4.4550	AWHILE	-0.2155
-4.3458	AWKWARD	-0.0659
-5.3001	AXE
-5.3001	AXLE
-5.3001	AXLES
-4.3458	AYE	-0.0030
-5.3001	AZALEAS
-4.1861	B	-0.0776
-5.3001	BA
-5.3001	BABBLE
-5.3001	BABBLED
-5.3001	BABBLING
-4.4550	BABIES	-0.1071
-4.4550	BABY
-5.3001	BACCALAUREATE
-4.6980	BACHELOR_S	-0.1394
-2.9883	BACK	-0.4770
-4.1861	BACKGROUND	-0.3262
-5.3001	BACKGROUNDS
-4.5219	BACKPACK	-0.1407
-4.6980	BACKPACKS	-0.0859
-4.6980	BACKWARDS	-0.2847
-4.8229	BACON	-0.1445
-4.9990	BACTERIA
-3.0595	BAD	-0.2722
-5.3001	BADDY
-4.5219	BADLY
-5.3001	BAD_S
-4.4550	BAG	-0.1531
-4.4550	BAGS	-0.1071
-4.9990	BAHIA
-5.3001	BAJA
-5.3001	BAKE
-5.3001	BAKING
-4.0448	BALANCE	-0.1561
-4.9990	BALANCED
-4.9990	BALANCES
-5.3001	BALCONIES
-5.3001	BALCONY
-5.3001	BALD
-5.3001	BALDY
-4.3970	BALL	-0.2922
-5.3001	BALLOON
-5.3001	BANBRIDGE
-4.5219	BAND
-4.8229	BANDS
-5.3001	BANDWIDTH
-4.9990	BANG
-4.8229	BANK
-4.8229	BANNED	-0.1949
-4.1240	BAR	-0.1914
-5.3001	BARBADOS
-4.9990	BARELY
-5.3001	BARITONE
-5.3001	BARREL
-5.3001	BARRY
-4.9990	BARS
-4.3458	BASE	-0.1955
-4.2587	BASED	-0.7388
-5.3001	BASEMENT
-5.3001	BASES
-5.3001	BASH
-4.8229	BASIC
-3.6566	BASICALLY	-0.0901
-5.3001	BASIL
-5.3001	BASIN
-4.5219	BASIS	-0.0836
-4.5219	BASKETBALL	-0.0343
-4.6011	BASTARDS	-0.1927
-4.9990	BATH
-4.9990	BATHE	-0.3429
-4.3970	BATHROOM
-5.3001	BATHROOMS
-5.3001	BATHS
-5.3001	BATS
-4.9990	BATTERIES	-0.3385
-5.3001	BATTERY
-5.3001	BATTLEGROUNDS
-5.3001	BATUR
-4.8229	BAY
-5.3001	BAZAAR
-2.3058	BE	-0.3186
-4.1861	BEACH	-0.1088
-4.4550	BEACHES	-0.2105
-5.3001	BEADS
-4.9990	BEAGLE
-5.3001	BEAGLES
-4.9990	BEAM
-5.3001	BEAMS
-4.9990	BEAR
-5.3001	BEARD
-4.3001	BEAT	-0.0936
-5.3001	BEATS
-3.9576	BEAUTIFUL	-0.1781
-4.9990	BEAUTIFULLY	-0.2925
-4.9990	BEAVER
-5.3001	BEC
-4.9990	BECAME
-5.3001	BECAU
-2.7936	BECAUSE	-0.5528
-4.4550	BECOME	-0.0676
-4.6980	BECOMING	-0.3325
-4.2209	BED	-0.1731
-4.9990	BEDROOM
-5.3001	BEDROOMS
-5.3001	BEDROOM_S
-5.3001	BEDS
-4.6011	BEE
-5.3001	BEEF
-2.8186	BEEN	-0.2581
-4.1539	BEER	-0.4022
-4.8229	BEES
-5.3001	BEETS
-3.1602	BEFORE	-0.4411
-4.9990	BEFOREHAND
-4.9990	BEG
-5.3001	BEGGING
-4.8229	BEGIN	-0.1969
-3.9383	BEGINNING	-0.5233
-5.3001	BEHALF
-4.6980	BEHAVE	-0.1325
-5.3001	BEHAVIOR
-5.3001	BEHEADED
-4.2209	BEHIND	-0.1635
-4.8229	BEIN
-3.2470	BEING	-0.1532
-4.4550	BEINGS	-0.1589
-4.6980	BELFAST
-3.8851	BELIEVE	-0.2737
-4.8229	BELIEVED	-0.1924
-5.3001	BELIEVERS
-5.3001	BELIEVES
-5.3001	BELIGERENT
-5.3001	BELLY
-5.3001	BELMONT
-4.9990	BELONG
-4.9990	BELOW	-0.3403
-5.3001	BEMUSED
-4.8229	BENCH
-4.9990	BENCHES
-4.9990	BEND	-0.3429
-5.3001	BENEFICIAL
-4.8229	BENEFITS	-0.1963
-5.3001	BENIGN
-5.3001	BENT
-5.3001	BEREFT
-4.8229	BESIDE
-4.3458	BESIDES	-0.1884
-3.4193	BEST	-0.1466
-4.0213	BET	-0.2868
-5.3001	BETA
-3.1861	BETTER	-0.2460
-3.6873	BETWEEN	-0.1871
-5.3001	BEVERAGE
-4.8229	BEYOND
-5.3001	BI-LING
-4.9990	BI-LINGUAL
-5.3001	BIAS
-4.8229	BIASED
-5.3001	BIBBLE
-4.9990	BIBLE
-5.3001	BIBS
-5.3001	BICKERING
-5.3001	BIDDING
-3.1633	BIG	-0.0850
-4.6011	BIGGER	-0.2512
-4.8229	BIGGEST
-3.9383	BIKE	+0.0117
-5.3001	BIKERS
-4.8229	BIKES
-4.4550	BIKING	-0.1071
-5.3001	BIKINI
-5.3001	BIKINIS
-4.6011	BILLION
-4.6980	BILLS
-5.3001	BIMBO
-5.3001	BINGE
-4.4550	BIO	-0.0737
-5.3001	BIOCHEMISTRY
-4.9990	BIOLOGICAL
-5.3001	BIOLOGIST
-4.4550	BIOLOGY	-0.0732
-5.3001	BIRCH
-4.3458	BIRD	-0.0670
-4.6980	BIRDS
-4.6980	BIRTH	-0.2847
-4.3970	BIRTHDAY	-0.1738
-2.8868	BIT	-0.3204
-4.8229	BITCH
-4.9990	BITE
-4.9990	BITES
-5.3001	BITING
-3.8377	BITS	-0.3059
-4.9990	BITTER
-4.6980	BIZARRE
-5.3001	BLA
-4.1240	BLACK	-0.1719
-4.9990	BLACKBERRIES
-5.3001	BLACKBERRY
-4.6980	BLACKBIRDS
-5.3001	BLACKNESS
-4.8229	BLADE
-3.8377	BLAH	-0.8073
-5.3001	BLAME
-5.3001	BLAN
-4.6011	BLANK
-5.3001	BLANKETS
-5.3001	BLAST
-4.9990	BLASTED
-5.3001	BLASTING
-5.3001	BLAZING
-5.3001	BLEACH
-5.3001	BLEAK
-5.3001	BLEED
-4.9990	BLESSED	-0.2925
-4.9990	BLIBBLE
-5.3001	BLIND
-4.9990	BLISS
-5.3001	BLIZZARDS
-5.3001	BLOCK
-4.9990	BLOCKING
-4.9990	BLOCKS
-4.0696	BLOOD	-0.2738
-5.3001	BLOODTHIRSTY
-3.8687	BLOODY	-0.0179
-4.4550	BLOW	-0.1544
-5.3001	BLOWING
-5.3001	BLOWN
-5.3001	BLOWS
-3.9990	BLUE	-0.1684
-5.3001	BLUEGRASS
-5.3001	BLUNT
-5.3001	BLUR
-5.3001	BLURB
-5.3001	BLURRY
-4.9990	BO	-0.2925
-4.6011	BOARD
-5.3001	BOARDING
-5.3001	BOARDS
-5.3001	BOARD_S
-4.5219	BOAT	-0.0343
-5.3001	BOATS
-4.8229	BODIES	-0.1938
-4.3458	BODY	-0.0030
-5.3001	BOGGLING
-4.8229	BOILED
-5.3001	BOILER
-5.3001	BOLSHEVIK
-4.9990	BOMB
-5.3001	BOMBED
-4.9990	BOMBERS
-5.3001	BOMBING
-5.3001	BOMBINGS
-4.8229	BOMBS	-0.1445
-4.8229	BOND
-5.3001	BONDING
-4.6980	BONES
-5.3001	BOO
-5.3001	BOOHOO
-3.8377	BOOK	-0.1740
-4.6980	BOOKED
-4.9990	BOOKER	-0.3460
-4.1240	BOOKS	-0.0810
-4.9990	BOOKSTORE	-0.2925
-5.3001	BOOK_S
-4.6011	BOOM	-0.0542
-4.9990	BOOST
-4.9990	BOOT
-4.9990	BOOTH	-0.2925
-4.9990	BOOTS
-4.9990	BOP
-5.3001	BORDER
-5.3001	BORE
-5.3001	BOREALIS
-4.2209	BORED	-0.1181
-4.1240	BORING	-0.1084
-5.3001	BORINGLY
-4.3970	BORN	-0.2559
-5.3001	BORROW
-4.5219	BOSS
-4.8229	BOTANIC
-3.8851	BOTH	-0.0979
-4.5219	BOTHER	-0.1927
-5.3001	BOTHERED
-5.3001	BOTHERS
-5.3001	BOTTLE
-5.3001	BOTTLED
-5.3001	BOTTLES
-4.3001	BOTTOM	-0.1132
-4.1539	BOUGHT	-0.0674
-5.3001	BOULDER
-5.3001	BOUNCED
-4.9990	BOUND	-0.3390
-4.6011	BOUT	-0.1020
-5.3001	BOWL
-4.6011	BOWLING	-0.0542
-4.1240	BOX	-0.1654
-4.4550	BOXES	-0.2105
-5.3001	BOXING
-4.2587	BOY	-0.0907
-4.2209	BOYFRIEND	-0.0342
-5.3001	BOYFRIENDS
-4.8229	BOYFRIEND_S
-4.6980	BOYS
-5.3001	BRACELETS
-4.9990	BRAD	-0.3460
-4.0696	BRAIN	-0.1839
-4.6980	BRAINS
-5.3001	BRANCH
-5.3001	BRANCHING
-4.8229	BRAND
-5.3001	BRAT
-4.9990	BRAVE
-5.3001	BRAWNY
-5.3001	BREA
-4.9990	BREAD
-3.9576	BREAK	-0.0208
-5.3001	BREAKERS
-4.8229	BREAKFAST
-5.3001	BREAKIN
-4.8229	BREAKS
-4.9990	BREAST
-5.3001	BREATHED
-5.3001	BREATHTAKING
-5.3001	BREED
-5.3001	BREEZE
-4.6011	BRICK
-4.8229	BRIDGE
-5.3001	BRIEFINGS
-4.0959	BRIGHT	-0.1965
-5.3001	BRIGHTER
-5.3001	BRIGHTNESS
-5.3001	BRILLIANCE
-4.1539	BRILLIANT	-0.1588
-5.3001	BRINE
-4.1861	BRING	-0.0780
-4.9990	BRINGING
-5.3001	BRISTOL
-5.3001	BRITAIN
-4.3001	BRITISH	-0.0542
-5.3001	BRITTLE
-5.3001	BRO
-4.9990	BROAD
-5.3001	BROADCASTED
-5.3001	BROADER
-4.6011	BROKE
-4.9990	BROKEN	-0.3450
-5.3001	BRONTOSAURUS
-4.8229	BRONZE	-0.1445
-4.8229	BROOM	-0.1445
-4.0696	BROTHER	-0.1439
-4.8229	BROTHERS
-4.9990	BROTHER_S
-4.6980	BROUGHT	-0.1385
-4.8229	BROWN
-4.9990	BRUSH
-5.3001	BRUSHIN
-5.3001	BRUTAL
-4.8229	BUBBLE	-0.1979
-4.8229	BUBBLY
-5.3001	BUCK
-4.4550	BUCKS	-0.0206
-5.3001	BUDDHA
-4.9990	BUDDHISM
-5.3001	BUDDHIST
-5.3001	BUDDY
-4.6011	BUDGET	-0.1076
-5.3001	BUDS
-5.3001	BUE
-5.3001	BUEN
-4.9990	BUFF
-4.9990	BUFFET
-4.9990	BUG
-4.3458	BUILD	-0.0556
-3.8087	BUILDING	-0.2633
-4.2587	BUILDINGS	-0.0840
-5.3001	BUILDING_S
-5.3001	BUILDS
-4.5219	BUILT
-5.3001	BULB
-5.3001	BULBS
-5.3001	BULK
-5.3001	BULLET
-5.3001	BULLETS
-4.8229	BULLSHIT	-0.1445
-5.3001	BULLY
-5.3001	BUMBLES
-4.9990	BUMMER	-0.2925
-4.9990	BUMP
-4.8229	BUMPING
-5.3001	BUMPS
-5.3001	BUMPY
-3.8377	BUNCH	-0.6801
-5.3001	BUNGEE
-4.5219	BUNK	-0.0850
-5.3001	BURDENS
-4.3970	BURGER	-0.2566
-4.9990	BURGERS
-4.9990	BURIED	-0.3403
-4.9990	BURN
-5.3001	BURNING
-4.6980	BURNT
-5.3001	BURST
-5.3001	BURSTING
-3.5677	BUS	-0.1882
-4.4550	BUSES
-5.3001	BUSHES
-4.0959	BUSINESS	-0.1084
-5.3001	BUSINESSMAN
-5.3001	BUSING
-5.3001	BUSTED
-4.3970	BUSY
-2.1505	BUT	-0.6719
-5.3001	BUTT
-4.9990	BUTTON
-5.3001	BUTTONS
-3.7686	BUY	-0.2382
-4.8229	BUYING
-4.9990	BUYS
-5.3001	BUZZ
-3.1539	BY	-0.2516
-3.8087	BYE	-0.8357
-5.3001	B_BYE
-4.3970	C	-0.3355
-4.8229	CA
-4.9990	CAB
-5.3001	CABIN
-4.6011	CABS	-0.2459
-4.9990	CACTUS
-5.3001	CADAVER
-5.3001	CADENCES
-4.8229	CAFE
-4.6980	CAFETERIA
-5.3001	CAFFEINE
-5.3001	CAGE
-5.3001	CALAMARI
-5.3001	CALCULUS
-5.3001	CALIFORNIANS
-3.7949	CALL	-0.3014
-3.6566	CALLED	-0.2340
-4.6980	CALLS
-3.9383	CALM	-0.3507
-4.9990	CALMING
-5.3001	CALMLY
-3.5597	CAME	-0.4779
-4.5219	CAMERA	-0.1407
-4.8229	CAMERAS
-5.3001	CAMERA_S
-5.3001	CAMPAIGNING
-4.8229	CAMPING
-3.5677	CAMPUS	-0.2476
-4.9990	CAMPUSES
-2.5488	CAN	-0.4232
-4.8229	CANADA
-4.3001	CANADIAN	-0.2635
-4.9990	CANADIANS
-5.3001	CANARIA
-5.3001	CANCEL
-4.6011	CANCER	-0.1927
-4.9990	CANDLE
-5.3001	CANDY
-5.3001	CANE
-4.9990	CANNIBAL	-0.3460
-5.3001	CANNIBALISM
-4.3458	CANNOT	-0.0564
-5.3001	CANS
-5.3001	CANT
-4.9990	CANTONESE
-5.3001	CANVAS
-5.3001	CANVASSES
-2.9596	CAN_T	-0.3661
-4.9990	CAP
-4.8229	CAPABLE	-0.5508
-4.9990	CAPITAL
-5.3001	CAPS
-5.3001	CAPSULE
-5.3001	CAPTURE
-3.5841	CAR	-0.0813
-4.9990	CARBON
-4.6980	CARD	-0.2847
-4.9990	CARDS
-3.9383	CARE	-0.1959
-5.3001	CARED
-4.6011	CAREER
-4.6980	CAREFUL
-4.9990	CAREFULLY
-5.3001	CARES
-4.9990	CARIBBEAN
-5.3001	CARLOS
-5.3001	CARPOOL
-4.6980	CARRIED	-0.5955
-5.3001	CARRIER
-4.3458	CARRY	-0.0508
-4.5219	CARRYING	-0.0878
-4.3970	CARS	-0.0624
-5.3001	CARTONS
-4.9990	CAR_S	-0.3436
-4.1539	CASE	+0.0181
-4.8229	CASES
-4.4550	CASH	-0.1071
-5.3001	CASHIER_S
-5.3001	CASTING
-5.3001	CASTLE
-4.1539	CAT	-0.0194
-5.3001	CATALOGUING
-4.2587	CATCH	-0.2852
-5.3001	CATCHES
-4.8229	CATCHING
-5.3001	CATEGORISED
-5.3001	CATERS
-5.3001	CATHARSIS
-5.3001	CATHOLIC
-4.5219	CATHY	-0.0343
-4.6980	CATS
-4.4550	CAUGHT	-0.1597
-3.3810	CAUSE	-0.3232
-5.3001	CAUSED
-5.3001	CAUTERIZED
-4.9990	CAUTIOUS	-0.2925
-5.3001	CAVE
-5.3001	CDS
-5.3001	CD_S
-4.8229	CEILING	-0.1445
-5.3001	CELEBRATING
-5.3001	CELEBRITIES
-4.2587	CELL	-0.6263
-5.3001	CELLS
-5.3001	CENT
-4.4550	CENTER	-0.1015
-4.8229	CENTERED
-5.3001	CENTRAL
-5.3001	CENTRALLY
-5.3001	CENTRE
-4.9990	CENTRED
-4.8229	CENTRES	-0.1445
-4.9990	CENTS	-0.3441
-4.9990	CENTURY
-5.3001	CEPHALOPOD
-4.5219	CERAMICS	-0.1407
-5.3001	CEREMONIES
-4.3970	CEREMONY	-0.1493
-4.0448	CERTAIN	-0.0328
-4.0213	CERTAINLY	-0.1076
-5.3001	CERTIFIABLE
-4.9990	CH
-5.3001	CHA
-5.3001	CHAIN
-5.3001	CHAINED
-4.6011	CHAIR	-0.1021
-5.3001	CHAIRING
-5.3001	CHAIRS
-4.9990	CHALLENGE
-5.3001	CHALLENGED
-4.6011	CHALLENGING	-0.1046
-4.9990	CHAMPAGNE	-0.2925
-4.5219	CHANCE	-0.1407
-5.3001	CHANCES
-4.0448	CHANGE	-0.0789
-4.4550	CHANGED	-0.0206
-4.5219	CHANGES
-4.9990	CHANNEL
-4.9990	CHANNELLING
-5.3001	CHANNELS
-5.3001	CHANTS
-5.3001	CHAOS
-5.3001	CHAOTIC
-4.3001	CHARACTER	-0.4005
-4.3970	CHARACTERS	-0.0839
-4.9990	CHARGE
-5.3001	CHARITABLE
-5.3001	CHARITY
-4.9990	CHARLESTON
-5.3001	CHARMING
-4.8229	CHARTER
-5.3001	CHARTERS
-4.9990	CHASE
-5.3001	CHASED
-4.8229	CHAT	-0.1910
-5.3001	CHATTER
-4.8229	CHATTING
-4.9990	CHE
-4.1861	CHEAP	-0.1022
-4.8229	CHEAPER
-5.3001	CHEAPEST
-4.8229	CHEATING
-4.0959	CHECK	-0.2444
-4.8229	CHECKED
-4.8229	CHECKING
-5.3001	CHECKS
-4.3458	CHEER	-0.2866
-4.9990	CHEERED
-4.9990	CHEERFUL
-4.6980	CHEERING
-4.1539	CHEERY	-0.1530
-4.6980	CHEESE
-5.3001	CHEESEBURGERS
-5.3001	CHEESY
-4.8229	CHEM
-4.9990	CHEMICAL
-4.6011	CHEMISTRY
-5.3001	CHEWY
-4.6011	CHICKEN	-0.3947
-5.3001	CHIL
-4.6011	CHILD	-0.0542
-4.9990	CHILDISH
-3.8377	CHILDREN	-0.1593
-4.8229	CHILDREN_S	-0.1979
-4.6011	CHILL
-4.9990	CHILLED	-0.3451
-4.9990	CHILLING	-0.3451
-5.3001	CHILLS
-5.3001	CHIMNEY
-5.3001	CHINA
-3.7949	CHINESE	-0.0929
-4.9990	CHIP
-5.3001	CHIPPED
-5.3001	CHIPPER
-4.9990	CHIPS	-0.2925
-5.3001	CHOCOLATE
-4.3970	CHOICE	-0.2387
-4.8229	CHOICES	-0.1445
-4.8229	CHOIR	-0.1445
-5.3001	CHOKED
-5.3001	CHOMPING
-4.8229	CHOOSE	-0.5480
-4.8229	CHOPPED
-5.3001	CHOREOGRAPHED
-5.3001	CHORES
-5.3001	CHRI
-5.3001	CHRIS
-5.3001	CHRIST
-5.3001	CHRISTIAN
-5.3001	CHRISTIE
-3.5219	CHRISTMAS	-0.2206
-4.2587	CHRISTOPHER
-4.9990	CHRISTOPHER_S
-5.3001	CHRONIC
-5.3001	CHRONICALLY
-5.3001	CHUBBY
-5.3001	CHUFFED
-5.3001	CHUNK
-4.8229	CHURCH	-0.1905
-5.3001	CHURNING
-4.9990	CIGAR
-4.8229	CIGARETTE	-0.1980
-5.3001	CIGARETTES
-5.3001	CIGARS
-5.3001	CINDER
-4.8229	CINEMA
-4.4550	CIRCLE	-0.0206
-4.8229	CIRCLES	-0.1965
-4.6980	CITIES	-0.1338
-4.9990	CITIZEN
-4.9990	CITIZENSHIP
-3.9990	CITY	-0.1815
-5.3001	CITY_S
-4.9990	CIVIL
-5.3001	CIVILIAN
-4.9990	CIVILIANS
-5.3001	CLAIM
-5.3001	CLAM
-5.3001	CLAMORING
-5.3001	CLAPPY
-5.3001	CLARINET
-5.3001	CLARINETIST
-3.3656	CLASS	-0.2888
-3.6566	CLASSES	-0.1518
-4.8229	CLASSIC	-0.1445
-4.9990	CLASSICAL
-4.6011	CLASSICS	-0.0542
-5.3001	CLASSMAN
-5.3001	CLASSMEN
-4.9990	CLASSY
-5.3001	CLATTERING
-4.9990	CLAUSE
-5.3001	CLAW
-5.3001	CLAY
-4.0696	CLEAN	-0.2185
-5.3001	CLEANED
-5.3001	CLEANING
-4.3001	CLEAR	-0.1179
-4.9990	CLEARED
-4.9990	CLEARLY
-5.3001	CLEARS
-5.3001	CLEMENCY
-5.3001	CLICK
-4.9990	CLIFF
-4.6011	CLIMB
-5.3001	CLIMBS
-4.9990	CLINIC
-5.3001	CLINICAL
-5.3001	CLINICALLY
-5.3001	CLIPBOARD
-5.3001	CLIPPED
-5.3001	CLIPS
-5.3001	CLIQUE
-5.3001	CLOCK
-5.3001	CLOONY
-3.7319	CLOSE	-0.2919
-4.6011	CLOSED	-0.1885
-4.9990	CLOSELY
-4.9990	CLOSER
-5.3001	CLOTH
-4.6011	CLOTHES	-0.1002
-5.3001	CLOTHING
-5.3001	CLOTHS
-4.9990	CLOUD
-5.3001	CLOUDINESS
-4.4550	CLOUDS	-0.2339
-4.8229	CLOUDY
-4.4550	CLUB	-0.1879
-4.9990	CLUBS
-4.6980	CLUE
-5.3001	CLUSTERS
-5.3001	CO
-4.9990	COACH
-4.3458	COAST	-0.0636
-5.3001	COASTER
-5.3001	COAT
-4.9990	COCKTAILS
-4.9990	COCKY
-5.3001	CODE
-5.3001	CODES
-5.3001	CODING
-5.3001	COEXISTING
-4.0696	COFFEE	-0.1252
-5.3001	COGNITIVE
-5.3001	COHERENT
-4.9990	COIN
-4.1861	COLD	-0.1672
-5.3001	COLI
-5.3001	COLLABORATION
-5.3001	COLLAPSES
-5.3001	COLLAR
-5.3001	COLLEAGUE
-4.9990	COLLECT
-5.3001	COLLECTED
-5.3001	COLLECTIONS
-4.0696	COLLEGE	-0.0975
-4.3970	COLOR	-0.1370
-5.3001	COLORFUL
-5.3001	COLORS
-5.3001	COLOUR
-5.3001	COLOURS
-4.9990	COLUMN
-5.3001	COM
-4.9990	COMBINATION
-3.1963	COME	-0.5875
-5.3001	COMEBACK
-5.3001	COMEDY
-3.8229	COMES	-0.3471
-4.4550	COMFORTABLE	-0.1549
-5.3001	COMFORTS
-4.9990	COMIN
-3.6011	COMING	-0.3438
-5.3001	COMMANDS
-5.3001	COMMEMORATION
-5.3001	COMMENT
-5.3001	COMMENTING
-4.9990	COMMENTS
-4.9990	COMMITMENT
-4.9990	COMMITTEE
-4.8229	COMMON	-0.1445
-4.9990	COMMONSENSE
-5.3001	COMMOTION
-4.8229	COMMUNICATE	-0.1969
-4.9990	COMMUNICATING
-5.3001	COMMUNISM
-4.8229	COMMUNITY	-0.1980
-5.3001	COMMUTED
-4.8229	COMPANIES
-3.9990	COMPANY	-0.1766
-4.8229	COMPARABLE
-4.6980	COMPARATIVE	-0.1394
-4.6011	COMPARED	-0.6579
-5.3001	COMPENSATION
-4.9990	COMPETENT
-4.6011	COMPETITION	-0.0542
-5.3001	COMPETITION_S
-4.8229	COMPETITIVE
-4.3970	COMPLAIN	-0.2206
-5.3001	COMPLAINED
-4.6011	COMPLAINING
-5.3001	COMPLAINT
-5.3001	COMPLEMENTARY
-4.5219	COMPLETE
-4.9990	COMPLETED
-3.8851	COMPLETELY	+0.0154
-5.3001	COMPLEX
-4.6011	COMPLICATED	-0.1072
-5.3001	COMPLIMENTS
-5.3001	COMPLIN
-5.3001	COMPLY
-5.3001	COMPONENT
-5.3001	COMPOSER
-5.3001	COMPRESSED
-5.3001	COMPROMISE
-3.7438	COMPUTER	-0.1338
-4.5219	COMPUTERS	-0.1407
-4.8229	CONCENTRATE	-0.1965
-4.6980	CONCENTRATED	-0.1394
-5.3001	CONCENTRATES
-5.3001	CONCENTRATION
-4.8229	CONCEPT	-0.1949
-4.8229	CONCERNED	-0.1924
-4.8229	CONCLUSION	-0.1952
-5.3001	CONCRETE
-4.9990	CONCUR
-5.3001	CONCURRENT
-5.3001	CONDENSE
-5.3001	CONDENSED
-4.6980	CONDITION	-0.1352
-5.3001	CONDITIONING
-4.9990	CONDITIONS
-5.3001	CONDUCIVE
-5.3001	CONDUCTOR
-4.9990	CONES	-0.2925
-4.1861	CONFERENCE	-0.0255
-4.9990	CONFERENCES
-4.6980	CONFIDENT	-0.2890
-5.3001	CONFIDENTIAL
-4.6980	CONFRONT	-0.1385
-5.3001	CONFRONTATION
-5.3001	CONFRONTED
-5.3001	CONFUSE
-4.6011	CONFUSED	-0.1927
-4.9990	CONFUSING
-5.3001	CONFUSION
-5.3001	CONGRATULATE
-5.3001	CONGRATULATION
-4.8229	CONGRATULATIONS	-0.5014
-5.3001	CONJUGATES
-4.9990	CONNECTED	-0.3390
-4.8229	CONNECTION
-5.3001	CONNECTIONS
-5.3001	CONNECTS
-5.3001	CONS
-5.3001	CONSCIENCE
-4.4550	CONSCIOUS	-0.1071
-5.3001	CONSCIOUSLY
-4.3001	CONSCIOUSNESS	-0.2132
-5.3001	CONSENT
-4.6980	CONSERVATIVE
-4.9990	CONSERVATORY
-4.5219	CONSIDER
-4.9990	CONSIDERATION	-0.3385
-4.6011	CONSIDERED	-0.1077
-5.3001	CONSOLATION
-4.8229	CONSPIRACY	-0.1980
-5.3001	CONSPIRING
-5.3001	CONST
-4.9990	CONSTANT
-4.5219	CONSTANTLY
-5.3001	CONSTRICTED
-5.3001	CONSTRUCTED
-3.9383	CONSTRUCTION	-0.2290
-4.4550	CONSTRUCTIVE
-5.3001	CONSTRUCTIVELY
-5.3001	CONSUMER
-5.3001	CONSUMING
-4.9990	CONTACT
-4.4550	CONTACTS
-4.9990	CONTEMPORARY
-4.9990	CONTENT
-5.3001	CONTENTED
-5.3001	CONTESTANTS
-4.8229	CONTEXT	-0.1445
-4.9990	CONTEXTS
-4.9990	CONTINENTAL	-0.3460
-4.9990	CONTINGENCY
-5.3001	CONTINUALLY
-5.3001	CONTINUATION
-4.1539	CONTINUE	-0.1427
-5.3001	CONTINUES
-4.9990	CONTINUOUS
-5.3001	CONTINUOUSLY
-5.3001	CONTRACICT
-4.9990	CONTRACT
-5.3001	CONTRACTURAL
-5.3001	CONTRADICT
-5.3001	CONTRAPTION
-3.9990	CONTROL	-0.0335
-5.3001	CONTROL-ALT-DELETE
-5.3001	CONTROLLING
-5.3001	CONTROLS
-5.3001	CONTROVERSIAL
-4.8229	CONTROVERSY
-4.6011	CONVENIENT	-0.0542
-5.3001	CONVENTIONS
-4.2209	CONVERSATION	-0.2851
-5.3001	CONVERSATIONAL
-5.3001	CONVERSATIONALIST
-4.5219	CONVERSATIONS
-5.3001	CONVERSE
-4.8229	CONVINCE
-4.6011	CONVINCED
-5.3001	CONVOCATION
-5.3001	COO
-4.6980	COOK
-4.8229	COOKED
-4.6980	COOKING
-2.9039	COOL	-0.6584
-5.3001	COOLEST
-5.3001	COORDINATE
-4.8229	COORDINATION
-5.3001	COORDINATOR
-4.6011	COP	-0.0542
-4.4550	COPE	-0.2403
-4.9990	COPING	-0.3449
-5.3001	COPPER
-4.6011	COPS	-0.1893
-5.3001	COPY
-5.3001	CORALS
-4.5219	CORNER
-5.3001	CORNERS
-4.9990	CORRECT
-5.3001	CORRECTLY
-4.9990	CORTEX
-4.9990	COS
-4.9990	COST
-5.3001	COSTA
-5.3001	COSTING
-5.3001	COTTON
-5.3001	COU
-2.9990	COULD	-0.3879
-3.7090	COULDN_T	-0.2239
-4.8229	COULD_VE	-0.1973
-5.3001	COUNSELLOR
-4.8229	COUNT
-5.3001	COUNTER
-4.8229	COUNTING
-4.4550	COUNTRIES	-0.1071
-3.9778	COUNTRY	-0.1128
-5.3001	COUNTRYSIDE
-4.9990	COUNTS
-3.5925	COUPLE	-0.3564
-4.9990	COUPLES
-4.8229	COUPON
-5.3001	COUPONS
-3.6188	COURSE	-0.2538
-5.3001	COURSES
-5.3001	COURT
-4.8229	COUSIN
-4.9990	COUSINS	-0.3385
-4.8229	COVER
-4.6011	COVERED	-0.1077
-5.3001	COVERS
-4.9990	COW	-0.3460
-4.6980	CRAIC	-0.0859
-4.9990	CRAMMED
-5.3001	CRAMMING
-4.2587	CRAP	-0.1377
-4.9990	CRAPPY
-4.9990	CRASH
-5.3001	CRASHES
-5.3001	CRASHING
-4.8229	CRAWL	-0.1949
-5.3001	CRAZE
-5.3001	CRAZIES
-4.9990	CRAZIEST
-3.5219	CRAZY	-0.4169
-5.3001	CREAKING
-4.8229	CREAM	-0.5550
-4.9990	CREAMY
-4.5219	CREATE
-4.9990	CREATES
-4.8229	CREATING
-4.9990	CREATIVE
-4.9990	CREATURE
-4.5219	CREDIT	-0.1941
-4.0213	CREDITS	-0.2727
-4.9990	CREEK
-4.9990	CREEP
-4.3458	CREEPY	-0.2090
-5.3001	CREW
-5.3001	CRIED
-5.3001	CRINGE
-5.3001	CRISIS
-5.3001	CRISPY
-4.9990	CRITIC
-5.3001	CRITICAL
-5.3001	CRITICISED
-4.6980	CRITICISM	-0.0859
-5.3001	CRO
-5.3001	CROATIAN
-5.3001	CROESUS
-5.3001	CROOKED
-5.3001	CROP
-5.3001	CROPS
-4.2587	CROSS	-0.1387
-5.3001	CROSSED
-4.9990	CROSSING
-4.9990	CROSSWALK
-4.9990	CROWDED
-4.8229	CROWS	-0.1445
-4.8229	CRUEL
-5.3001	CRUISE
-5.3001	CRUMBLING
-4.4550	CRUNCH	-0.1560
-5.3001	CRUNCHING
-4.9990	CRUST
-4.9990	CRY
-5.3001	CRYIN
-5.3001	CSI
-5.3001	CUBAN
-5.3001	CUBES
-5.3001	CUCUMBER
-5.3001	CUCUMBERS
-4.9990	CUDDLING
-4.9990	CUISINE
-5.3001	CULT
-5.3001	CULTURAL
-4.6011	CULTURE	-0.1002
-5.3001	CULTY
-4.6011	CUP	-0.3905
-5.3001	CUPS
-5.3001	CURB
-5.3001	CURED
-5.3001	CURING
-4.9990	CURIOUS
-5.3001	CURMUDGEON
-5.3001	CURRENTLY
-5.3001	CURSE
-4.8229	CURTAINS	-0.5531
-5.3001	CURTSEY
-5.3001	CUSE
-5.3001	CUSSING
-4.9990	CUSTOMER
-5.3001	CUSTOMS
-3.9199	CUT	-0.1663
-3.9576	CUTE	-0.5979
-5.3001	CUTENESS
-4.8229	CUTTING
-5.3001	CYCLE
-4.8229	CYCLING	-0.1905
-5.3001	CYLINDER
-4.6011	CZECH
-4.0959	D	-0.1024
-4.3458	DAD
-5.3001	DADDA
-4.6980	DAEMON
-5.3001	DAEMON_S
-4.6980	DAILY
-4.9990	DAM
-5.3001	DAMAGED
-4.8229	DAMMIT	-0.1445
-4.5219	DAMN	-0.0343
-5.3001	DAMNED
-5.3001	DAMP
-5.3001	DAMPED
-4.4550	DANCE	-0.0728
-4.6980	DANCING
-4.8229	DANDELIONS	-0.1445
-4.8229	DANG	-0.1445
-5.3001	DANGER
-4.6980	DANGEROUS	-0.2847
-5.3001	DANISH
-5.3001	DARE
-4.0959	DARK	-0.0914
-4.8229	DARKNESS
-4.9990	DARN
-5.3001	DARTS
-5.3001	DASHES
-4.0696	DATA	-0.1130
-4.8229	DATABASE
-4.9990	DATABASES	-0.2925
-4.3001	DATE	-0.1100
-5.3001	DATED
-4.9990	DATES
-4.8229	DATING	-0.5014
-4.4550	DAUGHTER	-0.0741
-3.2137	DAY	-0.2589
-3.6873	DAYS	-0.1935
-5.3001	DAY_S
-5.3001	DAZZLED
-5.3001	DE
-4.5219	DEAD	-0.2871
-4.1539	DEADLINE	-0.0198
-5.3001	DEADLINES
-4.8229	DEAF	-0.1949
-3.7816	DEAL	-0.3418
-4.6011	DEALING	-0.3937
-4.6980	DEALS
-5.3001	DEALT
-4.4550	DEAR	-0.1071
-4.6011	DEATH	-0.3872
-5.3001	DEATHLY
-5.3001	DEBATABLE
-5.3001	DEBATES
-5.3001	DEBAUCHERY
-5.3001	DEBRIEF
-5.3001	DEBRIEFING
-5.3001	DECAPITATED
-5.3001	DECEMBER
-4.6011	DECENT
-4.5219	DECIDE	-0.0808
-4.1240	DECIDED	-0.3511
-4.6980	DECISION
-5.3001	DECISIONS
-5.3001	DECISIVE
-5.3001	DECK
-5.3001	DECKS
-5.3001	DECLINING
-5.3001	DECOMPOSED
-4.8229	DECORATE	-0.1923
-5.3001	DEDICATED
-4.9990	DEDICATION
-4.3970	DEEP
-4.8229	DEEPER
-4.8229	DEEPEST	-0.1980
-4.9990	DEEPLY
-4.9990	DEER
-4.5219	DEFINATELY	-0.2453
-5.3001	DEFINED
-5.3001	DEFINES
-3.6873	DEFINITELY	-0.1082
-4.9990	DEFINITION
-5.3001	DEFINITIONS
-5.3001	DEFINITIVE
-5.3001	DEFLATED
-5.3001	DEGENERATIVE
-4.3001	DEGREE	-0.0524
-4.8229	DEGREES
-5.3001	DEH
-5.3001	DELETE
-4.9990	DELICIOUS
-5.3001	DELIGHTED
-5.3001	DELIVER
-5.3001	DELIVERED
-5.3001	DEMANDS
-5.3001	DEMOCRAT
-4.8229	DEMON	-0.1952
-5.3001	DEMONSTRATED
-5.3001	DEMONSTRATING
-4.9990	DENIED	-0.2925
-5.3001	DENMARK
-5.3001	DENMARK_S
-4.6011	DENY	-0.4451
-5.3001	DEPARTED
-4.1861	DEPARTMENT	-0.1071
-4.9990	DEPARTMENTS
-5.3001	DEPARTMENT_S
-4.8229	DEPENDABLE
-5.3001	DEPENDENCIES
-4.8229	DEPENDING	-0.5535
-3.9990	DEPENDS	-0.3160
-5.3001	DEPOSIT
-4.0213	DEPRESSED	-0.0107
-4.3970	DEPRESSING	-0.0106
-4.8229	DEPRESSION
-4.9990	DEPTH
-4.4550	DERBY	-0.0741
-5.3001	DERIVED
-5.3001	DERMOT
-5.3001	DEROGATORY
-5.3001	DES
-4.6980	DESCENT
-4.6011	DESCRIBE	-0.1020
-5.3001	DESCRIBED
-5.3001	DESCRIBING
-5.3001	DESENSITIZED
-4.9990	DESERT
-4.9990	DESERTED
-4.8229	DESERVE	-0.1910
-4.9990	DESIGN
-5.3001	DESIGNED
-5.3001	DESIRES
-4.6011	DESK	-0.0542
-5.3001	DESPERATE
-5.3001	DESPERATELY
-5.3001	DESPISE
-4.9990	DESPITE
-4.9990	DESTROY
-4.9990	DESTROYED
-4.9990	DESTROYING
-5.3001	DESTROYS
-4.8229	DESTRUCTION
-5.3001	DETACHED
-4.8229	DETAIL
-4.6980	DETAILS	-0.5421
-5.3001	DETERMINANT
-5.3001	DETEST
-5.3001	DETESTS
-5.3001	DETONATION
-4.8229	DEVELOP
-5.3001	DEVELOPED
-4.9990	DEVELOPING
-5.3001	DEVIATE
-4.3970	DEVICE	-0.2922
-5.3001	DEVOID
-5.3001	DIAGRAMS
-5.3001	DIAL
-5.3001	DIALECT
-4.9990	DIALECTS
-4.9990	DIAMOND
-4.3970	DIARY	-0.0834
-4.6980	DICTIONARIES	-0.0859
-4.5219	DICTIONARY	-0.0343
-2.9074	DID	-0.4807
-3.1269	DIDN_T	-0.3961
-4.1240	DIE	-0.1148
-4.0448	DIED	-0.3037
-4.8229	DIES
-4.9990	DIFFER
-4.0696	DIFFERENCE	-0.2423
-4.6980	DIFFERENCES	-0.0859
-3.3044	DIFFERENT	-0.1222
-5.3001	DIFFERENTIATION
-4.9990	DIFFERENTLY
-3.7949	DIFFICULT	-0.3266
-4.9990	DIFFICULTIES
-4.8229	DIFFICULTY
-4.9990	DIG
-4.6980	DIGITAL	-0.2925
-5.3001	DIGITALLY
-5.3001	DIGNIFIED
-5.3001	DILUTE
-4.3970	DIM	-0.2922
-5.3001	DIMENSIONAL
-5.3001	DINING
-4.0959	DINNER	-0.1517
-5.3001	DINNERS
-5.3001	DIP
-4.9990	DIPPING
-5.3001	DIPPY
-4.9990	DIRECT
-4.9990	DIRECTED
-4.3970	DIRECTION	-0.0834
-5.3001	DIRECTIONS
-4.9990	DIRECTLY
-4.9990	DIRECTOR
-4.6980	DIRT
-4.9990	DIRTY
-4.6980	DISABLED	-0.1393
-4.6980	DISAGREE	-0.2912
-5.3001	DISAGREEMENT
-4.8229	DISAPPEAR
-4.9990	DISAPPEARED
-5.3001	DISAPPEARS
-4.3001	DISAPPOINTED	-0.2851
-5.3001	DISAPPOINTING
-4.9990	DISAPPOINTMENT
-5.3001	DISASTER
-5.3001	DISASTEROUS
-5.3001	DISASTEROUSLY
-5.3001	DISCERNING
-4.9990	DISCIPLINE
-5.3001	DISCIPLINED
-5.3001	DISCLOSE
-4.9990	DISCONNECTED	-0.3456
-5.3001	DISCOVER
-5.3001	DISCOVERED
-5.3001	DISCREDITED
-4.9990	DISCRETION
-4.5219	DISCUSS	-0.0822
-5.3001	DISCUSSING
-4.8229	DISCUSSION	-0.1967
-4.8229	DISEASE
-5.3001	DISEMBODIED
-4.9990	DISGRACE	-0.2925
-4.3970	DISGUSTING	-0.4370
-4.9990	DISH
-4.4550	DISHES	-0.0206
-5.3001	DISKS
-5.3001	DISLIKE
-5.3001	DISMISS
-5.3001	DISORDER
-5.3001	DISORGA
-5.3001	DISORGANISATION
-5.3001	DISORGANISED
-5.3001	DISPLAYED
-5.3001	DISQUALIFIES
-5.3001	DISSERTATION
-5.3001	DISSOLVING
-5.3001	DISTINCT
-5.3001	DISTINGUISH
-5.3001	DISTRACT
-4.9990	DISTRACTED
-4.6011	DISTRACTIONS	-0.0542
-5.3001	DISTRACTS
-5.3001	DISTRESSED
-4.8229	DISTURBING
-5.3001	DITCHES
-4.9990	DIVE
-5.3001	DIVE_S
-4.9990	DIVING
-4.8229	DIVORCE	-0.5014
-5.3001	DIZZYING
-5.3001	DJ_S
-2.3066	DO	-0.5942
-5.3001	DOAK
-5.3001	DOCILE
-4.9990	DOCK
-4.9990	DOCKS
-4.6011	DOCTOR	-0.1927
-4.9990	DOCTORS
-5.3001	DOCUMENTARY
-5.3001	DOCUMENTS
-3.2356	DOES	-0.3716
-3.2173	DOESN_T	-0.3766
-3.9021	DOG	-0.1216
-4.8229	DOGS
-4.6980	DOH
-4.8229	DOIN
-3.0306	DOING	-0.3279
-5.3001	DOIN_
-5.3001	DOLL
-4.3458	DOLLAR
-3.9199	DOLLARS	-0.0731
-4.9990	DOLPHIN	-0.2925
-5.3001	DOMES
-5.3001	DOMINATING
-5.3001	DON
-4.6980	DONATE
-5.3001	DONATED
-3.3001	DONE	-0.3004
-4.9990	DONEGAL
-5.3001	DONEGAL_S
-4.6980	DONORS
-2.3531	DON_T	-0.7427
-5.3001	DOO
-5.3001	DOOMBAR
-5.3001	DOOMED
-4.0448	DOOR	-0.0920
-4.5219	DOORMAT	-0.4062
-5.3001	DOORMATS
-4.6980	DOORS
-5.3001	DOORWAY
-5.3001	DOPER
-4.3458	DORM	-0.2306
-4.3001	DORMS	-0.1004
-4.9990	DOROTHY_S
-4.3001	DOUBLE	-0.1076
-5.3001	DOUBLY
-4.6011	DOUBT
-5.3001	DOUBTFUL
-5.3001	DOUGH
-5.3001	DOUGH_S
-3.0595	DOWN	-0.4184
-4.9990	DOWNHILL
-4.6011	DOWNS	-0.0542
-5.3001	DOWNSIDES
-4.3970	DOWNSTAIRS	-0.3733
-4.3458	DOWNTOWN	-0.1942
-5.3001	DOWNTRODDEN
-5.3001	DOWNWARDS
-5.3001	DOZEN
-4.9990	DRAFTS
-5.3001	DRAG
-5.3001	DRAGGED
-5.3001	DRAGON
-5.3001	DRAGONS
-5.3001	DRAIN
-4.8229	DRAMA
-4.9990	DRANK
-4.6011	DRAW
-4.5219	DRAWER	-0.0343
-4.6011	DRAWING	-0.1020
-5.3001	DRAWN
-4.9990	DREAD
-5.3001	DREADS
-5.3001	DREAMING
-4.9990	DREAMS
-4.1539	DRESS	-0.1455
-4.9990	DRESSED
-4.9990	DRESSING
-5.3001	DRIBBLED
-5.3001	DRIED
-5.3001	DRIFT
-4.9990	DRILL
-5.3001	DRILLING
-4.0448	DRINK	-0.1709
-4.3001	DRINKING
-4.6011	DRINKS
-5.3001	DRIP
-5.3001	DRIPPING
-3.9383	DRIVE	-0.0743
-4.9990	DRIVER
-4.9990	DRIVERS
-4.3001	DRIVING
-4.3458	DROP
-4.9990	DROPPED
-5.3001	DROPPING
-5.3001	DROPS
-4.5219	DROVE
-5.3001	DROWNING
-5.3001	DRUG
-4.9990	DRUGS
-4.4550	DRUNK	-0.1071
-5.3001	DRUNKEN
-5.3001	DRUNKS
-5.3001	DRY
-5.3001	DUBLIN
-4.1539	DUCK	-0.0506
-5.3001	DUCKLING
-4.5219	DUCKLINGS	-0.1407
-4.1539	DUCKS	-0.1377
-5.3001	DUCT
-3.7560	DUDE	-0.2263
-5.3001	DUDES
-4.6980	DUE	-0.1324
-5.3001	DUET
-5.3001	DUG
-4.9990	DUH	-0.3329
-4.9990	DULL
-4.6011	DUMB	-0.0542
-5.3001	DUMMY
-5.3001	DUMP
-4.9990	DUMPING
-3.0353	DUNNO	-0.5641
-5.3001	DUPLEX
-3.9383	DURING	-0.5084
-5.3001	DUSK
-5.3001	DUSTED
-5.3001	DUTIES
-4.9990	DVD
-5.3001	DWARF
-4.3970	DWELL	-0.4890
-5.3001	DWELLIN
-5.3001	DWELLING
-5.3001	DYA
-4.6980	DYING	-0.1382
-4.4550	D_YA	-0.3535
-3.9021	E	-0.1777
-5.3001	E-MAIL
-5.3001	E-MAILS
-5.3001	EA
-3.7319	EACH	-0.4490
-4.3970	EAR	-0.0106
-4.3458	EARLIER	-0.2056
-3.8687	EARLY	-0.3749
-4.8229	EARN
-5.3001	EARNED
-5.3001	EARRINGS
-4.3458	EARS	-0.0030
-4.3458	EARTH
-5.3001	EASE
-4.0959	EASIER	-0.2039
-4.3970	EASILY	-0.1493
-4.8229	EAST
-4.8229	EASTENDERS
-4.9990	EASTER
-4.8229	EASTERN
-3.7560	EASY	-0.1460
-3.8529	EAT	-0.0905
-4.8229	EATEN
-5.3001	EATIN
-4.5219	EATING	-0.1856
-4.9990	EBAY
-5.3001	EBB
-5.3001	EBE
-4.3970	ECHO	-0.1493
-4.8229	ECHOES	-0.1914
-5.3001	ECHOS
-5.3001	ECHOY
-5.3001	ECOLOGY
-5.3001	ECON
-4.9990	ECONOMICS
-4.8229	ECONOMY
-5.3001	ECONOMY_S
-5.3001	ECUMENICAL
-5.3001	EDELWEISS
-5.3001	EDGE
-4.9990	EDIBLE
-4.9990	EDIT	-0.3403
-4.8229	EDITOR
-4.9990	EDITORS
-5.3001	EDITOR_S
-4.6980	EDUCATION
-5.3001	EDUCATIONAL
-4.9990	EE	-0.3459
-5.3001	EEJAT
-4.9990	EFFECT
-5.3001	EFFECTIVELY
-4.8229	EFFECTS
-4.6980	EFFICIENT	-0.0859
-4.4550	EFFORT	-0.0206
-4.8229	EGG	-0.1980
-5.3001	EGO
-2.6852	EH	-0.2270
-5.3001	EHH
-4.9990	EHM
-3.7949	EIGHT	-0.1260
-4.3001	EIGHTEEN	-0.1058
-4.9990	EIGHTEENTH
-4.9990	EIGHTH
-4.6011	EIGHTIES
-4.3001	EIGHTY	-0.1075
-3.5841	EITHER	-0.3055
-5.3001	ELAPSED
-4.9990	ELASTIC
-5.3001	ELECTED
-4.8229	ELECTIVE	-0.1977
-5.3001	ELECTIVES
-4.9990	ELECTRIC	-0.3456
-4.3001	ELECTRICAL	-0.2488
-5.3001	ELECTRICALLY
-4.8229	ELECTRICITY	-0.1445
-5.3001	ELECTRO
-4.9990	ELECTROMAGNETIC
-4.6011	ELECTRONIC
-4.6980	ELECTRONICS
-4.9990	ELEMENT	-0.3418
-5.3001	ELEMENTARY
-5.3001	ELEPHANT
-4.9990	ELEVATOR
-4.1861	ELEVEN	-0.2307
-5.3001	ELIMINATE
-5.3001	ELIMINATES
-4.8229	ELK
-4.9990	ELLEN
-3.1357	ELSE	-0.2961
-5.3001	ELSEWHERE
-5.3001	ELSE_S
-2.4285	EM	-0.3228
-4.5219	EMAIL
-5.3001	EMAILED
-4.3970	EMAILS	-0.1953
-4.9990	EMBARRASSING
-5.3001	EMERGENCY
-4.6980	EMM
-5.3001	EMMM
-4.5219	EMOTION
-4.9990	EMOTIONAL
-5.3001	EMOTIONALLY
-4.9990	EMOTIONS
-5.3001	EMPHASIS
-5.3001	EMPHASISED
-5.3001	EMPLOYEE
-5.3001	EMPLOYER
-4.8229	EN	-0.1445
-5.3001	ENAMOURED
-4.8229	ENCOURAGE
-5.3001	ENCOURAGED
-3.4250	END	-0.6349
-5.3001	ENDEAR
-4.6011	ENDED	-0.2453
-4.9990	ENDING
-5.3001	ENDLESS
-5.3001	ENDOCRINE
-4.8229	ENDS
-4.9990	ENERGETIC
-4.0959	ENERGY	-0.1476
-4.6011	ENGAGE	-0.2432
-5.3001	ENGAGED
-5.3001	ENGAGEMENT
-5.3001	ENGINE
-4.6980	ENGINEER	-0.0859
-4.8229	ENGINEERING	-0.1445
-4.6980	ENGINEERS
-5.3001	ENGINES
-4.9990	ENGINE_S
-4.8229	ENGLAND	-0.1905
-3.6873	ENGLISH	-0.2293
-5.3001	ENGLISH_S
-5.3001	ENGRAVED
-5.3001	ENHANCED
-5.3001	ENHANCEMENT
-5.3001	ENING
-3.7203	ENJOY	-0.1781
-4.3458	ENJOYABLE	-0.0659
-4.6980	ENJOYED
-4.5219	ENJOYING	-0.3268
-4.9990	ENJOYMENT
-5.3001	ENLIGHTENING
-5.3001	ENORMOUS
-3.5758	ENOUGH	-0.2664
-5.3001	ENRAGED
-5.3001	ENROLLMENT
-5.3001	ENSEMBLE
-5.3001	ENSEMBLES
-5.3001	ENTER
-5.3001	ENTERS
-4.8229	ENTERTAIN	-0.5467
-4.9990	ENTERTAINED	-0.3457
-4.9990	ENTERTAINING
-5.3001	ENTERTAINMENT
-5.3001	ENTERTAINS
-5.3001	ENTHUSIASM
-5.3001	ENTHUSIASMS
-5.3001	ENTHUSIASTIC
-4.4550	ENTIRE	-0.0741
-4.6011	ENTIRELY	-0.1075
-5.3001	ENTIRETY
-4.9990	ENTITLED	-0.3390
-5.3001	ENTREPRENEUR
-5.3001	ENTRY
-5.3001	ENVELOPED
-4.4550	ENVIRONMENT	-0.1071
-5.3001	ENVIRONMENTAL
-4.9990	ENVIRONMENTS	-0.2925
-5.3001	EPISODE
-4.9990	EPISODES
-5.3001	EQUAL
-4.9990	EQUALLY
-4.8229	EQUATION
-5.3001	EQUATOR
-3.1697	ER	-0.2276
-4.6011	ERA	-0.1058
-4.9990	ERASERS	-0.2925
-5.3001	ERES
-3.3001	ERM	-0.2951
-4.9990	ERRANDS
-5.3001	ERRATIC
-5.3001	ERYOU
-4.9990	ESCAPE	-0.3457
-3.9990	ESPECIALLY	-0.1253
-4.9990	ESPRESSO
-5.3001	ESSAY
-4.8229	ESSAYS
-5.3001	EST
-5.3001	ESTATE
-5.3001	ESTIMATE
-5.3001	ESTIMATING
-5.3001	ETC
-5.3001	ETCETERA
-4.6011	ETERNAL	-0.3947
-5.3001	ETS
-5.3001	EU
-5.3001	EUCALYPTUS
-5.3001	EUDAIMONIS
-4.8229	EURO	-0.1979
-4.5219	EUROPEAN	-0.1942
-5.3001	EVALUATE
-5.3001	EVANGELICAL
-5.3001	EVE
-3.2282	EVEN	-0.1003
-5.3001	EVENIN
-4.2209	EVENING	-0.1181
-4.9990	EVENINGS
-4.6980	EVENTS
-4.2209	EVENTUALLY	-0.0833
-3.4193	EVER	-0.2716
-3.4612	EVERY	-0.2501
-3.7203	EVERYBODY	-0.1007
-4.6980	EVERYBODY_S
-4.6980	EVERYDAY
-3.6980	EVERYONE	-0.0575
-4.2587	EVERYONE_S	-0.0869
-3.3707	EVERYTHING	-0.2906
-4.9990	EVERYTHINGS
-4.1240	EVERYTHING_S	-0.1029
-4.9990	EVERYTIME
-4.0448	EVERYWHERE	-0.3566
-4.6980	EVIDENCE	-0.0859
-4.9990	EVIL
-5.3001	EVOLUTION
-5.3001	EVOLVE
-4.8229	EX	-0.1980
-5.3001	EXACT
-3.5597	EXACTLY	-0.4120
-5.3001	EXAGGERATED
-4.8229	EXAM
-4.9990	EXAMINER	-0.2925
-5.3001	EXAMINERS
-4.6980	EXAMPLE
-5.3001	EXAMS
-5.3001	EXASPERATED
-5.3001	EXCECUSH
-3.8087	EXCELLENT	-0.3958
-3.9778	EXCEPT	-0.1526
-5.3001	EXCEPTION
-5.3001	EXCEPTIONAL
-5.3001	EXCEPTIONS
-4.5219	EXCESSIVE	-0.0343
-4.9990	EXCESSIVELY
-5.3001	EXCHANGE
-5.3001	EXCISED
-5.3001	EXCITABILITY
-4.0213	EXCITED	-0.3736
-3.8851	EXCITING	-0.3243
-5.3001	EXCLAMATION
-4.9990	EXCURSION
-4.4550	EXCUSE	-0.4097
-5.3001	EXECUTIONERS
-5.3001	EXEMPTION
-4.4550	EXERCISE
-4.9990	EXERCISING
-5.3001	EXERT
-4.6980	EXHAUSTED
-4.6980	EXIST	-0.0859
-4.9990	EXISTENCE
-5.3001	EXISTENT
-4.8229	EXISTS
-4.8229	EXIT	-0.5014
-4.9990	EXOTIC
-5.3001	EXPANDED
-5.3001	EXPANSE
-4.1240	EXPECT	-0.1304
-5.3001	EXPECTANCY
-4.9990	EXPECTATIONS
-4.8229	EXPECTED	-0.1910
-5.3001	EXPECTIN
-4.3001	EXPECTING	-0.0937
-5.3001	EXPENSE
-3.9778	EXPENSIVE	+0.0063
-4.2209	EXPERIENCE	-0.1852
-4.3970	EXPERIENCES	-0.0106
-4.6980	EXPERIMENT	-0.1355
-5.3001	EXPERIMENTAL
-4.3970	EXPERIMENTS	-0.1493
-4.9990	EXPERT
-4.6980	EXPLAIN	-0.1337
-4.8229	EXPLAINING	-0.1910
-4.6980	EXPLETIVES	-0.0859
-4.9990	EXPLODE
-5.3001	EXPLODED
-4.9990	EXPLOITING
-4.9990	EXPLORE
-4.8229	EXPLORING
-5.3001	EXPLOSION
-4.9990	EXPLOSIONS	-0.2925
-5.3001	EXPOSED
-5.3001	EXPOSES
-4.9990	EXPOSURE	-0.2925
-4.8229	EXTEND	-0.1972
-4.9990	EXTENDED	-0.2925
-5.3001	EXTENT
-4.9990	EXTERNAL
-5.3001	EXTINGUISHED
-4.0696	EXTRA	-0.0931
-5.3001	EXTRAORDINARY
-4.9990	EXTREME
-4.6011	EXTREMELY
-4.9990	EXTREMES
-4.6011	EYE	-0.1062
-4.3458	EYES	-0.0030
-4.3970	F	-0.0106
-4.9990	FA
-4.9990	FABRIC
-4.0959	FACE	-0.2062
-5.3001	FACEBOOK
-5.3001	FACES
-5.3001	FACILITIES
-5.3001	FACILITY
-4.8229	FACING
-3.7949	FACT	-0.5962
-5.3001	FACTS
-4.9990	FACULTY
-5.3001	FADING
-5.3001	FAILED
-5.3001	FAILING
-5.3001	FAILINGS
-3.9576	FAIR	-0.3423
-5.3001	FAIRIES
-4.5219	FAIRLY
-5.3001	FAIRS
-4.8229	FAIRY
-4.9990	FAITH
-4.8229	FAKE	-0.1445
-4.9990	FAKING
-3.9778	FALL	-0.3336
-4.9990	FALLEN	-0.3457
-4.6011	FALLING	-0.1074
-5.3001	FALLING_S
-4.4550	FALLS	-0.0666
-5.3001	FALL_S
-4.6980	FALSE
-5.3001	FAME
-4.6980	FAMILIAR	-0.1383
-4.8229	FAMILIES
-3.8229	FAMILY	-0.1460
-4.9990	FAMILY_S
-5.3001	FAMINES
-4.8229	FAMOUS
-4.4550	FAN	-0.2142
-5.3001	FANATIC
-4.6980	FANCY
-5.3001	FANTASIES
-4.3001	FANTASTIC	-0.1624
-5.3001	FANTASTICAL
-4.8229	FANTASY
-3.6011	FAR	-0.2761
-5.3001	FARCE
-4.9990	FARTHER
-5.3001	FASCINATING
-5.3001	FASHION
-5.3001	FASHIONABLE
-5.3001	FASHIONED
-4.0213	FAST	-0.1678
-4.6980	FASTER
-4.3458	FAT	-0.1215
-5.3001	FATHER
-5.3001	FATIGUES
-4.3001	FAULT	-0.2851
-3.9778	FAVORITE	-0.1081
-5.3001	FAVORITES
-5.3001	FAVOUR
-4.3970	FAVOURITE	-0.1383
-5.3001	FAVOURS
-4.9990	FEATHER
-4.9990	FEATURES	-0.2925
-5.3001	FEBRUARY
-4.4550	FED	-0.9235
-5.3001	FEDERAL
-5.3001	FEE
-5.3001	FEEBLE
-4.4550	FEED	-0.0206
-4.9990	FEEDBACK
-5.3001	FEEDING
-2.9926	FEEL	-0.4542
-3.6980	FEELING	-0.0435
-4.6011	FEELINGS	-0.4576
-4.0696	FEELS	-0.1161
-4.5219	FEET	-0.1407
-4.1861	FELL	-0.2742
-4.9990	FELLOW
-5.3001	FELLOWSHIP
-3.9990	FELT	-0.3108
-4.9990	FEMALE
-4.9990	FEMALES
-4.9990	FENCE
-4.5219	FENCING	-0.0343
-4.5219	FERRY	-0.0343
-5.3001	FEST
-5.3001	FESTIVAL
-5.3001	FESTIVE
-4.9990	FEUD	-0.2925
-3.5442	FEW	-0.4677
-5.3001	FI
-4.6980	FICTION
-5.3001	FICTIONAL
-5.3001	FICTIONALIZE
-5.3001	FIDDLE
-5.3001	FIDO
-4.0213	FIELD	-0.1451
-4.5219	FIELDS	-0.1407
-5.3001	FIERY
-3.9990	FIFTEEN	-0.2862
-5.3001	FIFTEENS
-4.3458	FIFTEENTH	-0.3461
-5.3001	FIFTEEN_S
-4.4550	FIFTH	-0.0206
-4.8229	FIFTIES
-4.8229	FIFTIETH
-4.0448	FIFTY	-0.1028
-4.6011	FIGHT	-0.1965
-5.3001	FIGHTER
-4.3970	FIGHTING	-0.0638
-3.9199	FIGURE	-0.4896
-4.4550	FIGURED	-0.0684
-5.3001	FIGURES
-4.9990	FIGURING	-0.3451
-4.6980	FILE
-4.6980	FILES	-0.2847
-5.3001	FILING
-4.6011	FILIPINO	-0.0542
-4.6980	FILL
-4.2587	FILM	-0.0416
-5.3001	FILMING
-5.3001	FILMS
-5.3001	FILTER
-5.3001	FINAL
-5.3001	FINALE
-4.3458	FINALLY	-0.1880
-4.3970	FINALS	-0.0106
-5.3001	FINANCIAL
-5.3001	FINANCIALLY
-3.3458	FIND	-0.3042
-4.6011	FINDING
-3.5925	FINE	-0.3313
-4.9990	FINGER
-4.9990	FINGERS
-4.6011	FINISH
-4.0213	FINISHED	-0.1631
-4.9990	FINISHING
-5.3001	FINITE
-4.1861	FIRE	-0.1239
-5.3001	FIREBALL
-4.8229	FIREWORKS
-5.3001	FIRMITY
-4.9990	FIRMLY
-3.3269	FIRST	-0.2406
-3.9383	FISH	-0.3616
-4.8229	FISHING
-5.3001	FIST
-4.2587	FIT	-0.3324
-5.3001	FITTED
-5.3001	FIT_S
-3.4550	FIVE	-0.2167
-4.9990	FIX
-4.9990	FIXED	-0.2925
-5.3001	FIXING
-4.6980	FLAG	-0.0859
-5.3001	FLAK
-4.6980	FLAMES	-0.0859
-4.6011	FLAT
-5.3001	FLAVOR
-5.3001	FLAVORED
-5.3001	FLESH
-4.9990	FLEW
-5.3001	FLIBBERTY
-4.9990	FLIES
-5.3001	FLIGHT
-5.3001	FLIGHTS
-4.5219	FLIGHTY	-0.0343
-5.3001	FLIPPANT
-5.3001	FLIRTING
-4.6011	FLOATING	-0.6646
-5.3001	FLOOD
-5.3001	FLOODED
-4.2587	FLOOR	-0.1377
-5.3001	FLOORS
-4.6980	FLOWER	-0.1394
-4.3970	FLOWERS	-0.0624
-4.9990	FLOWING
-5.3001	FLUCTUATES
-4.9990	FLUENT
-4.8229	FLUENTLY	-0.5014
-5.3001	FLUORESCENT
-4.9990	FLUSH	-0.3460
-5.3001	FLUSHES
-4.6011	FLY
-4.6980	FLYER
-5.3001	FLYERS
-4.9990	FLYING
-4.5219	FOCUS	-0.2974
-5.3001	FOCUSES
-4.4550	FOCUSSED	-0.0726
-5.3001	FOIL
-5.3001	FOILED
-5.3001	FOLDER
-5.3001	FOLK
-4.8229	FOLLOW
-4.6980	FOLLOWED	-0.1391
-4.8229	FOLLOWING
-3.5366	FOOD	-0.2594
-5.3001	FOODS
-4.5219	FOOL	-0.1407
-4.9990	FOOLISH
-4.1539	FOOLS	-0.1391
-4.3001	FOOT	-0.1659
-4.8229	FOOTBALL
-2.3615	FOR	-0.4399
-4.9990	FORCE
-4.6011	FORCED	-0.1007
-5.3001	FORCEFUL
-4.6011	FOREIGN
-5.3001	FOREIGNERS
-4.9990	FORENSICS	-0.2925
-5.3001	FORESEEABLE
-4.6011	FOREST	-0.1927
-4.3001	FORESTRY	-0.1179
-4.5219	FOREVER	-0.4062
-4.2209	FORGET	-0.1772
-5.3001	FORGETTING
-4.6980	FORGOT
-4.5219	FORGOTTEN	-0.0821
-5.3001	FORK
-3.9576	FORM	-0.1654
-5.3001	FORMAT_S
-5.3001	FORMED
-4.9990	FORMER
-4.6011	FORMS
-4.6011	FORTH
-5.3001	FORTIES
-5.3001	FORTN
-5.3001	FORTUNATELY
-5.3001	FORTUNE
-3.8377	FORTY	-0.2091
-3.6980	FORWARD	-0.7682
-5.3001	FORWARDING
-5.3001	FOUGHT
-3.9576	FOUND	-0.2604
-5.3001	FOUNDRY
-3.7203	FOUNTAIN	-0.3788
-5.3001	FOUNTAINS
-3.3363	FOUR	-0.2272
-5.3001	FOURS
-4.5219	FOURTEEN	-0.0878
-5.3001	FOURTEENTH
-4.5219	FOURTH
-5.3001	FOURTHS
-5.3001	FOWL
-5.3001	FRAGRANT
-4.4550	FRAME	-0.9203
-5.3001	FRAN
-4.9990	FRANK	-0.2925
-4.9990	FRANKLY
-5.3001	FRATERNITIES
-5.3001	FRAUD
-4.3970	FREAK	-0.2265
-4.5219	FREAKED	-0.2979
-5.3001	FREAKIN
-4.6980	FREAKING	-0.1385
-5.3001	FREAKS
-5.3001	FREAKY
-3.9383	FREE	-0.1683
-4.9990	FREEDOM
-5.3001	FREEWAY
-4.6980	FREEZING	-0.1394
-5.3001	FREIGHTER
-3.9021	FRENCH	-0.1704
-5.3001	FRENZIED
-4.9990	FREQUENCY
-5.3001	FREQUENT
-4.9990	FREQUENTLY
-4.6980	FRESH
-4.3001	FRESHMAN	-0.1056
-4.5219	FRESHMEN
-3.7319	FRIDAY	-0.1983
-4.8229	FRIDAYS
-5.3001	FRIDGE
-5.3001	FRIDGES
-3.6280	FRIEND	-0.3019
-4.8229	FRIENDLY
-3.3916	FRIENDS	-0.1647
-5.3001	FRIEND_S
-4.6011	FRIES	-0.1927
-4.6011	FRIGGING
-5.3001	FRIGHT
-4.9990	FRIGHTENED	-0.2925
-4.6980	FRIGHTENING	-0.2847
-5.3001	FRILLS
-5.3001	FRISBEE
-3.0034	FROM	-0.2754
-3.9383	FRONT	-0.4707
-5.3001	FROST
-4.9990	FRUIT
-5.3001	FRUITS
-5.3001	FRUITY
-5.3001	FRUSTRATE
-4.4550	FRUSTRATED	-0.1097
-4.3970	FRUSTRATING	-0.1379
-4.8229	FRUSTRATION
-5.3001	FRYER
-5.3001	FRYING
-5.3001	FS
-3.9990	FUCK	-0.5630
-4.9990	FUCKED
-4.0448	FUCKING	-0.0268
-5.3001	FUCK_S
-4.9990	FUEL
-4.8229	FULFILLED	-0.1445
-3.6188	FULL	-0.3122
-4.8229	FULLY
-3.1571	FUN	-0.3433
-4.9990	FUNCTION
-5.3001	FUNCTIONAL
-5.3001	FUNCTIONALITY
-5.3001	FUNCTIONING
-5.3001	FUND
-4.9990	FUNDAMENTALLY
-4.3458	FUNDING	-0.0615
-5.3001	FUNNIER
-5.3001	FUNNILY
-3.2509	FUNNY	-0.4167
-5.3001	FUR
-4.6011	FURTHER	-0.1077
-5.3001	FURTHEST
-5.3001	FURY
-4.1240	FUTURE	-0.1198
-5.3001	FUZZ
-4.9990	FUZZY
-4.5219	G	-0.0878
-5.3001	GADGETS
-5.3001	GAELIC
-4.9990	GAIN
-5.3001	GAINED
-5.3001	GAINS
-5.3001	GALAXIES
-5.3001	GALAXY
-5.3001	GALLERY
-5.3001	GALLONS
-4.9990	GALWAY
-5.3001	GAMBLE
-4.1240	GAME	-0.2775
-5.3001	GAMES
-5.3001	GAMING
-5.3001	GANG
-4.9990	GANGSTERS	-0.2925
-5.3001	GAPS
-4.9990	GARAGE
-4.4550	GARBAGE
-4.0213	GARDEN	-0.2657
-5.3001	GARDENER
-5.3001	GARDENS
-5.3001	GARY
-4.6011	GAS	-0.0542
-5.3001	GATE
-5.3001	GAUGE
-5.3001	GAUNT
-4.1861	GAVE	-0.3796
-5.3001	GAY
-4.8229	GE
-5.3001	GEAR
-5.3001	GEARED
-5.3001	GEARING
-4.9990	GEARS
-4.9990	GEE
-4.0959	GEESE	-0.4649
-4.6980	GEEZ	-0.2847
-5.3001	GEEZE
-5.3001	GELOTOPHOBIA
-4.9990	GEM
-4.2209	GENERAL	-0.0328
-4.2209	GENERALLY
-5.3001	GENERATED
-4.6980	GENERATION
-4.8229	GENERATIVE
-5.3001	GENES
-5.3001	GENRE
-4.9990	GENUINE
-4.9990	GENUINELY
-5.3001	GEOGRAPHIC
-5.3001	GEOGRAPHICALLY
-5.3001	GEOGRAPHY
-4.9990	GEOMETRIC	-0.2925
-5.3001	GEORGE
-5.3001	GEORGES
-5.3001	GEORGIANS
-4.1861	GERMAN	-0.5833
-5.3001	GERMANY
-5.3001	GESTURE
-5.3001	GESTURES
-2.4746	GET	-0.4481
-3.6188	GETS	-0.1719
-4.9990	GETTIN
-3.2394	GETTING	-0.2481
-5.3001	GET_S
-4.9990	GHETTO
-4.9990	GHOST
-4.8229	GHOSTS	-0.1905
-4.3458	GIANT	-0.1194
-4.3458	GIFT	-0.6615
-5.3001	GIFTS
-5.3001	GIGANTIC
-5.3001	GIGGLE
-5.3001	GIMME
-3.9990	GIRL	-0.0722
-4.2587	GIRLFRIEND	-0.0382
-5.3001	GIRLFRIENDS
-5.3001	GIRLFRIENDS_
-4.3970	GIRLS	-0.0834
-5.3001	GIRL_S
-5.3001	GIT
-5.3001	GITS
-3.5597	GIVE	-0.4892
-4.2587	GIVEN	-0.0895
-5.3001	GIVER
-4.6980	GIVES
-4.4550	GIVING	-0.0658
-3.8087	GLAD	-0.4339
-4.6011	GLADLY	-0.3412
-5.3001	GLADNESS
-5.3001	GLANCE
-5.3001	GLARED
-4.9990	GLASS
-4.6980	GLASSES
-5.3001	GLIBLY
-4.9990	GLITTER
-5.3001	GLITTERING
-4.8229	GLOBAL	-0.1980
-4.3970	GLOOM	-0.0614
-3.9778	GLOOMY	-0.1635
-5.3001	GLOVES
-5.3001	GLOWY
-5.3001	GLUE
-5.3001	GLUM
-5.3001	GNARLY
-5.3001	GNAW
-2.5725	GO	-0.5696
-5.3001	GOAD
-4.5219	GOAL	-0.1296
-4.6980	GOALS	-0.1319
-5.3001	GOAT
-5.3001	GOBBLEDEGOOK
-3.4308	GOD	-0.2714
-4.9990	GODDAMN
-5.3001	GODS
-3.7203	GOES	-0.1138
-5.3001	GOGGLES
-3.7949	GOIN	-0.5407
-2.8623	GOING	-0.6527
-4.9990	GOIN_
-4.3970	GOLD	-0.1740
-5.3001	GOLF
-5.3001	GOLFED
-5.3001	GOLL
-3.9199	GONE	-0.0829
-2.8101	GONNA	-0.4546
-2.3975	GOOD	-0.3848
-4.9990	GOODBYE	-0.2925
-4.6011	GOODNESS	-0.0946
-4.9990	GOODS
-4.4550	GORGEOUS	-0.1879
-5.3001	GORY
-3.7438	GOSH	-0.5358
-5.3001	GOSPEL
-2.8302	GOT	-0.2501
-4.5219	GOTCHA	-0.4062
-3.8229	GOTTA	-0.4878
-4.2587	GOTTEN
-4.9990	GOURMET	-0.2925
-4.1861	GOVERNMENT	-0.1672
-4.9990	GOVERNS	-0.3445
-4.8229	GRAB
-5.3001	GRABBED
-5.3001	GRABBING
-5.3001	GRACIAS
-4.3458	GRAD	-0.5018
-4.5219	GRADE
-5.3001	GRADES
-4.8229	GRADUALLY
-4.0959	GRADUATE	-0.3179
-4.4550	GRADUATED	-0.1065
-4.9990	GRADUATES
-4.9990	GRADUATING
-4.8229	GRADUATION
-5.3001	GRAMMAR
-5.3001	GRAN
-4.6980	GRAND
-5.3001	GRANDFATHER_S
-4.9990	GRANDPA
-5.3001	GRANDPARENTS
-4.8229	GRANT
-5.3001	GRANTED
-4.6011	GRASS
-5.3001	GRASSY
-5.3001	GRATEFUL
-5.3001	GRAVEL
-5.3001	GRAY
-5.3001	GREASY
-3.2137	GREAT	-0.2055
-4.8229	GREATEST	-0.1980
-5.3001	GRECIAN
-5.3001	GREECE
-5.3001	GREEDY
-4.2587	GREEK	-0.0951
-4.8229	GREEKS
-4.0696	GREEN	-0.0303
-5.3001	GREENS
-5.3001	GREENWICH
-4.9990	GREW	-0.3450
-4.2587	GREY	-0.0907
-5.3001	GREYHOUND
-5.3001	GREYNESS
-4.9990	GRIEF
-5.3001	GRIM
-5.3001	GRINS
-4.9990	GRIP
-4.9990	GRITTY
-5.3001	GROCERIES
-5.3001	GROCERY
-5.3001	GROOMING
-4.9990	GROOVES
-4.4550	GROSS	-0.3028
-5.3001	GROUCH
-4.3458	GROUND	-0.0659
-5.3001	GROUNDS
-4.0959	GROUP	-0.2221
-4.6980	GROUPS
-4.8229	GROW	-0.1970
-4.6011	GROWING
-4.6011	GROWN	-0.1068
-5.3001	GROWN-UPS
-4.8229	GROWTH	-0.1971
-4.8229	GUARANTEE	-0.1914
-4.9990	GUARANTEED
-5.3001	GUARD
-5.3001	GUARDIAN
-3.2666	GUESS	-0.2463
-4.9990	GUESSED
-5.3001	GUESSING
-5.3001	GUIDES
-5.3001	GUIDO
-5.3001	GUILT
-4.8229	GUILTY
-5.3001	GUITAR
-4.6980	GUN
-4.9990	GUNS	-0.2925
-5.3001	GUT
-5.3001	GUTS
-3.6188	GUY	-0.2427
-3.3556	GUYS	-0.2902
-4.9990	GUYS_
-4.9990	GUY_S
-4.8229	GYM
-4.5219	GYMNASTICS	-0.0747
-4.9990	GYMNASTS
-4.3970	H	-0.1739
-4.0448	HA	-0.4268
-5.3001	HABIT
-5.3001	HABITS
-5.3001	HACKERS
-2.7909	HAD	-0.4538
-4.4550	HADN_T	-0.1093
-4.1539	HAFTA	-0.1916
-5.3001	HAH
-4.0448	HAIR	-0.0798
-5.3001	HAIRCUT
-5.3001	HAIRED
-5.3001	HAIRS
-5.3001	HAIRY
-5.3001	HAIR_S
-3.6666	HALF	-0.2049
-5.3001	HALF-ELEVEN
-4.9990	HALF-TWO	-0.3429
-5.3001	HALFWAY
-5.3001	HALIBUT
-4.9990	HALL
-5.3001	HALLS
-5.3001	HALLUCINATING
-5.3001	HALLWAY
-4.9990	HAM	-0.2925
-4.8229	HAMMOCKS	-0.1962
-5.3001	HAMSTER
-4.3970	HAND	-0.0106
-4.6980	HANDBAG
-4.9990	HANDED
-5.3001	HANDFUL
-5.3001	HANDICAPPED
-5.3001	HANDING
-4.0448	HANDLE	-0.1813
-4.5219	HANDS	-0.1407
-5.3001	HANDSOME
-5.3001	HANDWRITING
-5.3001	HANDY
-4.0696	HANG	-0.4704
-4.6980	HANGING	-0.1385
-5.3001	HANGIN_
-4.8229	HANGOVER
-5.3001	HANGS
-5.3001	HAPHAZARD
-3.5841	HAPPEN	-0.2288
-3.6280	HAPPENED	-0.5403
-4.0448	HAPPENING	-0.3810
-3.7949	HAPPENS	-0.2215
-4.3458	HAPPIER	-0.0030
-4.3970	HAPPINESS	-0.0614
-2.9926	HAPPY	-0.3267
-3.3269	HARD	-0.5055
-4.9990	HARDCORE
-5.3001	HARDENING
-4.5219	HARDER	-0.0343
-4.3458	HARDEST
-4.8229	HARDLY
-4.9990	HARMFUL
-5.3001	HARMLESS
-4.9990	HARRY
-4.6011	HARSH	-0.1927
-3.2032	HAS	-0.3196
-4.3970	HASN_T	-0.3369
-5.3001	HASSLE
-4.6980	HAT
-3.7090	HATE	-0.1876
-4.6011	HATED
-4.9990	HATES
-5.3001	HATRED
-4.8229	HATS
-5.3001	HAUNT
-5.3001	HAUNTED
-2.2413	HAVE	-0.6288
-3.2626	HAVEN_T	-0.3968
-4.4550	HAVIN	-0.1624
-3.6768	HAVING	-0.2623
-4.3001	HAWAIIAN	-0.0542
-5.3001	HAWKING
-4.9990	HAWTHORN
-5.3001	HAZARDS
-4.8229	HAZING
-2.6926	HE	-0.4422
-3.6099	HEAD	-0.1886
-4.6980	HEADACHE	-0.0859
-4.9990	HEADACHES
-4.2209	HEADED	-0.1880
-4.6011	HEADING	-0.3943
-5.3001	HEADLIGHTS
-5.3001	HEADPHONE
-4.8229	HEADPHONES
-4.9990	HEADS
-5.3001	HEADSET
-5.3001	HEADSETS
-4.8229	HEADSTRONG
-5.3001	HEADSTRONGNESS
-5.3001	HEAD_S
-5.3001	HEAL
-4.1240	HEALTH	-0.1291
-5.3001	HEALTHIER
-4.2587	HEALTHY	-0.0416
-3.5677	HEAR	-0.2435
-3.4308	HEARD	-0.3924
-4.1861	HEARING	+0.0152
-5.3001	HEARING_S
-4.3001	HEART	-0.0505
-5.3001	HEARTACHE
-5.3001	HEARTY
-4.3970	HEAT	-0.0834
-5.3001	HEATING
-4.2587	HEAVY	-0.0774
-4.3970	HECK	-0.1693
-5.3001	HEIGHTENED
-5.3001	HEIGHTS
-5.3001	HELI
-5.3001	HELICOPTERS
-4.2587	HELL	-0.2099
-3.5077	HELLO	-0.7183
-4.9990	HELMETS
-3.5925	HELP	-0.2350
-4.8229	HELPED
-4.3458	HELPFUL	-0.3067
-4.6011	HELPING
-5.3001	HELPLESS
-4.3001	HELPS	-0.0995
-4.9990	HEMLOCK
-5.3001	HEMP
-4.6980	HEN
-5.3001	HENDRIX
-4.6011	HENRY
-3.2830	HER	-0.0484
-4.5219	HERB	-1.0105
-4.4550	HERBS	-0.1879
-2.7869	HERE	-0.4923
-4.1861	HERE_S	-0.2711
-5.3001	HERO
-5.3001	HEROINE
-4.6980	HERSELF	-0.1319
-5.3001	HER_S
-3.6280	HEY	-0.2224
-4.0959	HE_D	-0.0944
-4.6011	HE_LL
-3.0696	HE_S	-0.2785
-3.2872	HI	-0.6306
-4.3458	HIDE	-0.2452
-3.7203	HIGH	-0.2704
-4.6011	HIGHER	-0.1068
-4.9990	HIGHLY
-5.3001	HIGHS
-5.3001	HIGHWAY
-5.3001	HIKE
-5.3001	HIKES
-4.8229	HIKING
-4.3970	HILARIOUS	-0.4370
-5.3001	HILL
-4.6980	HILLS	-0.1369
-5.3001	HILLY
-3.3605	HIM	-0.2270
-4.8229	HIMSELF
-5.3001	HINDSIGHT
-5.3001	HIP
-5.3001	HIPPIE
-5.3001	HIPPIES
-4.9990	HIRED
-5.3001	HIRES
-5.3001	HIRING
-3.3088	HIS	-0.0421
-5.3001	HISS
-5.3001	HISTORIC
-3.8687	HISTORY	-0.2566
-3.9990	HIT	-0.2857
-5.3001	HITS
-4.3970	HITTING	-0.1362
-3.3410	HM	-0.4974
-3.0671	HMMM	-1.1833
-5.3001	HO
-5.3001	HOBBY
-4.0959	HOLD	-0.4966
-4.8229	HOLDER	-0.5014
-5.3001	HOLDERS
-4.9990	HOLDING
-4.4550	HOLE	-0.2383
-5.3001	HOLES
-3.7560	HOLIDAY	-0.1647
-3.9199	HOLIDAYS	-0.0398
-5.3001	HOLLABALLOO
-4.9990	HOLOCAUST	-0.2925
-4.9990	HOLY	-0.3460
-3.4136	HOME	-0.2967
-4.6980	HOMELESS
-4.9990	HOMESICK
-5.3001	HOMEWORK
-5.3001	HOMEY
-5.3001	HOME_S
-4.1539	HONEST	-0.2711
-4.3970	HONESTLY	-0.0834
-4.6980	HONORS	-0.1394
-4.3970	HOO	-0.2925
-5.3001	HOOD
-4.9990	HOOKED
-5.3001	HOOKS
-5.3001	HOOPS
-3.5292	HOPE	-0.4514
-5.3001	HOPEF
-4.8229	HOPEFUL
-3.6980	HOPEFULLY	-0.1088
-5.3001	HOPELESSNESS
-5.3001	HOPES
-5.3001	HOPIN
-4.3970	HOPING	-0.1191
-5.3001	HOPPING
-5.3001	HORIZON
-4.9990	HORRENDOUS
-4.1240	HORRIBLE	-0.1084
-5.3001	HORRID
-5.3001	HORRIDLY
-5.3001	HORRIFIC
-5.3001	HORRIFIED
-4.6980	HORROR	-0.1394
-4.6011	HORSE
-4.9990	HOSPITAL
-5.3001	HOSPITALS
-5.3001	HOST
-5.3001	HOSTEL
-3.9383	HOT	-0.0448
-4.6011	HOTEL	-0.2388
-5.3001	HOTELS
-5.3001	HOTTER
-4.9990	HOUND
-3.6768	HOUR	-0.2535
-3.8087	HOURS	-0.2758
-5.3001	HOUR_S
-3.5219	HOUSE	-0.2916
-4.4550	HOUSES
-4.8229	HOUSING
-4.8229	HOUSTON
-2.7438	HOW	-0.5476
-4.6980	HOWEVER
-4.4550	HOW_D	-0.9162
-4.2209	HOW_S	-0.3260
-5.3001	HU
-4.8229	HUG
-4.0448	HUGE	-0.1286
-4.9990	HUGEST
-3.0259	HUH	-1.3081
-5.3001	HUMAINE
-3.9021	HUMAN	-0.0980
-5.3001	HUMANITIES
-4.9990	HUMANITY
-4.9990	HUMANS
-4.9990	HUMAN_S
-4.8229	HUMID
-4.6980	HUMOUR
-5.3001	HUMOURED
-3.6011	HUNDRED	-0.3249
-4.6980	HUNDREDS
-4.8229	HUNG	-0.1976
-4.8229	HUNGRY
-5.3001	HUNT
-5.3001	HURRICANES
-5.3001	HURRY
-4.1240	HURT	-0.0428
-5.3001	HURTFUL
-4.8229	HURTING
-5.3001	HURTS
-4.5219	HUSBAND	-0.0343
-4.9990	HUSBANDS
-4.9990	HUSBAND_S
-5.3001	HUSKY
-4.9990	HYDRANT
-5.3001	HYDRANTS
-5.3001	HYPE
-5.3001	HYPER
-5.3001	HYPOCRITICAL
-5.3001	HYPOTHETICALLY
-1.5274	I	-1.0090
-5.3001	IAN
-5.3001	IB
-5.3001	IC
-4.3458	ICE	-0.1194
-5.3001	ICEBERGS
-4.4550	ID	-0.0714
-3.6373	IDEA	-0.3654
-4.5219	IDEAS	-0.0343
-5.3001	IDENTICAL
-5.3001	IDENTIFICATION
-4.8229	IDENTIFY
-5.3001	IDENTITY
-4.3001	IDIOT	-0.1100
-4.1861	IDIOTS	-0.2398
-5.3001	IDYLLIC
-2.6055	IF	-0.9436
-5.3001	IGNITION
-4.8229	IGNORANT	-0.1955
-4.8229	IGNORE
-5.3001	IGNORED
-4.9990	IGNORING
-5.3001	IKEA
-4.6011	ILL
-4.9990	ILLEGAL
-5.3001	ILLOGICAL
-4.9990	ILLUSION
-5.3001	IM
-5.3001	IMAGE
-5.3001	IMAGES
-3.8851	IMAGINE	-0.1143
-5.3001	IMBALANCE
-5.3001	IMMATURE
-4.5219	IMMEDIATELY
-5.3001	IMMENSE
-5.3001	IMMERSED
-4.9990	IMMIGRATION
-5.3001	IMMOVABLE
-5.3001	IMMUNE
-5.3001	IMPACT
-5.3001	IMPAIR
-5.3001	IMPEDING
-5.3001	IMPERIAL
-5.3001	IMPETUS
-5.3001	IMPLICATION
-5.3001	IMPLIED
-5.3001	IMPORTANCE
-3.9199	IMPORTANT	-0.2427
-5.3001	IMPOSSIBLE
-4.6980	IMPRESSED	-0.2912
-4.9990	IMPRESSION
-4.5219	IMPROVE
-4.9990	IMPROVEMENT
-4.9990	IMPROVING
-5.3001	IMPULSE
-2.1496	IN	-0.5160
-5.3001	INABI
-4.8229	INABILITY
-4.9990	INANE
-5.3001	INBOXES
-4.9990	INCA
-4.8229	INCH
-5.3001	INCHES
-5.3001	INCIDENT
-5.3001	INCLUDED
-5.3001	INCLUDES
-4.9990	INCLUDING	-0.3460
-5.3001	INCLUSIVE
-5.3001	INCOGNITO
-5.3001	INCOME
-5.3001	INCOMPETENT
-5.3001	INCOMPREHENSIBLE
-5.3001	INCORPORATE
-4.8229	INCREASE	-0.1898
-4.9990	INCREDIBLE
-4.8229	INCREDIBLY
-4.3001	INDEED	-0.1175
-5.3001	INDEFINITELY
-5.3001	INDEPENDENT
-5.3001	INDEPENDENTLY
-4.5219	INDIAN	-0.3405
-5.3001	INDIANS
-4.9990	INDIRECT
-4.9990	INDIVIDUAL
-5.3001	INDIVIDUALLY
-5.3001	INDONESIAN
-5.3001	INDOOR
-4.9990	INDOORS
-5.3001	INDUSTRIOUS
-5.3001	INEFFECTIVE
-5.3001	INEPT
-5.3001	INEQUALITIES
-5.3001	INEQUALITY
-5.3001	INERT
-4.9990	INEVITABLE
-4.9990	INEVITABLY
-5.3001	INFECTING
-5.3001	INFECTIONS
-5.3001	INFLUENCE
-5.3001	INFLUENCED
-5.3001	INFLUENCING
-4.2587	INFORMATION	-0.0933
-4.9990	INFORMATIONAL
-4.6011	INFRARED	-0.0542
-5.3001	INFRASTRUCTURE
-4.8229	INFURIATING	-0.1445
-5.3001	ING
-5.3001	INHUMAN
-5.3001	INITIAL
-4.6980	INITIALLY	-0.1263
-4.8229	INJURED	-0.5537
-5.3001	INJURED_S
-4.9990	INJUSTICE
-4.9990	INJUSTICES
-4.9990	INK
-5.3001	INNIT
-4.8229	INNOCENT
-5.3001	INNOVATE
-5.3001	INPUT
-5.3001	INS
-4.3970	INSANE	-0.4370
-5.3001	INSANELY
-5.3001	INSECURITY
-3.7686	INSIDE	-0.1646
-5.3001	INSIDES
-4.9990	INSISTED	-0.3445
-5.3001	INSPIRATION
-4.8229	INSTANCE
-4.8229	INSTANCES
-4.0448	INSTEAD	-0.6057
-5.3001	INSTIL
-5.3001	INSTRUCTION
-5.3001	INSTRUCTIONS
-5.3001	INSTRUCTOR
-5.3001	INSULATION
-4.8229	INSULT	-0.1897
-4.5219	INSULTED	-0.0822
-4.6980	INSULTING	-0.1378
-4.9990	INSULTS
-4.2587	INSURANCE	-0.1912
-5.3001	INSURE
-5.3001	INSURED
-5.3001	INTEGRATE
-4.9990	INTELLECTUAL
-5.3001	INTELLECTUALLY
-5.3001	INTELLIGENCE
-4.5219	INTELLIGENT
-5.3001	INTEND
-3.9778	INTENSE	-0.5774
-4.5219	INTENSIVE	-0.0877
-5.3001	INTENTION
-5.3001	INTENTIONALLY
-5.3001	INTENTS
-4.6980	INTERACT
-5.3001	INTERACTED
-5.3001	INTERACTING
-4.9990	INTERACTION
-5.3001	INTERACTIONS
-4.6011	INTEREST	-0.0994
-4.2209	INTERESTED	-0.3469
-3.2666	INTERESTING	-0.2981
-4.9990	INTERESTS
-4.8229	INTERFERENCE	-0.1445
-5.3001	INTERIOR
-5.3001	INTERMEDIATE
-5.3001	INTERNAL
-4.3458	INTERNATIONAL	-0.0565
-4.3458	INTERNET	-0.1208
-4.9990	INTERNET_S
-4.9990	INTERNSHIP
-5.3001	INTERPRET
-4.9990	INTERRUPT
-4.9990	INTERRUPTED
-5.3001	INTERSPERSE
-5.3001	INTERVENING
-5.3001	INTERVIEW
-5.3001	INTERVIEWING
-5.3001	INTESTINES
-3.1014	INTO	-0.2974
-4.6980	INTRO	-0.1324
-5.3001	INTRODUCED
-5.3001	INTRODUCTORY
-5.3001	INVADED
-4.9990	INVASIVE	-0.3460
-5.3001	INVASIVELY
-4.9990	INVENTED
-5.3001	INVEST
-5.3001	INVESTED
-5.3001	INVESTIGATES
-5.3001	INVESTIGATION
-5.3001	INVESTIGATOR
-5.3001	INVITE
-4.9990	INVITED
-5.3001	INVITES
-4.6011	INVOLVED	-0.2471
-4.8229	IONA	-0.5014
-4.9990	IPOD	-0.3385
-5.3001	IR
-4.4550	IRELAND
-5.3001	IRIDESCENT
-5.3001	IRISH
-5.3001	IRKED
-5.3001	IRON
-5.3001	IRONED
-5.3001	IRONIC
-5.3001	IRRATIONAL
-4.9990	IRRESPONSIBLE
-5.3001	IRRITABLE
-4.8229	IRRITATE	-0.5534
-5.3001	IRRITATES
-4.3458	IRRITATING	-0.2970
-2.1987	IS	-0.4089
-5.3001	ISH
-4.0959	ISLAND	-0.0749
-5.3001	ISLANDER
-5.3001	ISLANDERS
-5.3001	ISLANDS
-5.3001	ISLANDY
-3.5007	ISN_T	-0.3145
-4.9990	ISOLATED
-5.3001	ISREAL
-5.3001	ISREALI
-5.3001	ISREALIS
-4.9990	ISSUE
-4.6980	ISSUES
-1.8833	IT	-0.5670
-4.5219	ITALIAN	-0.1444
-5.3001	ITALY
-5.3001	ITCHING
-4.0959	ITS	-0.0280
-4.5219	ITSELF	-0.1410
-4.2209	IT_D	-0.7760
-3.6768	IT_LL	-0.5113
-2.0699	IT_S	-0.5672
-5.3001	IVE
-4.9990	IVY
-3.2872	I_D	-0.3978
-3.1240	I_LL	-0.5095
-2.2744	I_M	-0.5984
-4.9990	I_S
-2.7013	I_VE	-0.6067
-4.8229	J	-0.1951
-5.3001	JA
-5.3001	JAB
-4.9990	JACK
-5.3001	JACKET
-5.3001	JACKHAMMER
-4.8229	JACKHAMMERS	-0.5014
-5.3001	JAIL
-5.3001	JAM
-5.3001	JAMAICA
-4.9990	JAMAICAN	-0.3460
-5.3001	JAMES
-5.3001	JAMMED
-5.3001	JANE
-4.4550	JANUARY	-0.0206
-3.9576	JAPANESE	-0.1346
-4.8229	JARGON
-5.3001	JAW
-4.6980	JAYWALK	-0.1363
-5.3001	JAYWALKING
-4.4550	JAZZ	-0.0996
-4.6980	JEALOUS
-4.3001	JEEZ	-0.3629
-5.3001	JELLYFISH
-5.3001	JEN
-5.3001	JERKS
-5.3001	JERKY
-4.9990	JESUS
-5.3001	JET
-5.3001	JETS
-4.9990	JEW
-5.3001	JEWELLERY
-4.6980	JEWISH	-0.2847
-5.3001	JEZ
-5.3001	JIBBERT
-5.3001	JIGGLE
-5.3001	JIMMY
-5.3001	JINGLE
-4.9990	JINX
-3.6188	JOB	-0.2021
-4.3970	JOBS	-0.0641
-5.3001	JOB_S
-5.3001	JOE
-5.3001	JOGGING
-4.8229	JOIN	-0.1914
-4.9990	JOINED
-5.3001	JOINING
-4.9990	JOINTS	-0.3385
-4.3458	JOKE	-0.0536
-5.3001	JOKER
-4.9990	JOKERS
-4.5219	JOKES	-0.0343
-5.3001	JOKING
-4.8229	JOURNAL
-4.9990	JOURNALISM
-4.8229	JOURNEY	-0.1966
-4.9990	JOY
-4.3458	JUDGE	-0.1132
-4.9990	JUDGED
-4.8229	JUDGEMENTAL
-4.8229	JUDGING
-4.6980	JUDO
-4.6980	JUICE	-0.0859
-5.3001	JUICY
-5.3001	JULIAN
-4.9990	JULIE	-0.3460
-4.4550	JULY
-4.3001	JUMP	-0.1056
-4.8229	JUMPED	-0.1949
-4.3970	JUMPING	-0.2840
-4.9990	JUMPS
-4.1861	JUNE	-0.1101
-4.1861	JUNIOR	-0.0598
-5.3001	JUNIORS
-5.3001	JUNKY
-2.1762	JUST	-0.2151
-5.3001	JUSTICE
-4.9990	JUSTIFICATION
-4.0696	K	-0.0494
-4.9990	KANJI
-5.3001	KAY
-5.3001	KAYAK
-4.6980	KAZAKH	-0.1357
-5.3001	KAZAKH_S
-4.9990	KEEL
-5.3001	KEEN
-3.4550	KEEP	-0.2096
-5.3001	KEEPERS
-4.8229	KEEPING
-4.1240	KEEPS	-0.1059
-5.3001	KENNEL
-5.3001	KENYA
-4.3970	KEPT
-5.3001	KERNEL
-4.6980	KEY	-0.1367
-4.3970	KICK	-0.0558
-5.3001	KICKBOX
-5.3001	KICKBOXING
-5.3001	KICKS
-4.3001	KID	-0.1094
-4.1861	KIDDING	-0.6059
-5.3001	KIDNAP
-5.3001	KIDNAPPED
-5.3001	KIDNEY
-3.9021	KIDS	-0.0864
-4.9990	KILIMANJARO	-0.2925
-4.3458	KILL	-0.0482
-4.6980	KILLED
-4.9990	KILLER
-4.5219	KILLING	-0.1966
-5.3001	KILLS
-5.3001	KINA
-3.1125	KIND	-1.8823
-3.0078	KINDA	-0.1303
-5.3001	KINDERGARTEN
-4.3970	KINDS	-0.3418
-5.3001	KINGS
-5.3001	KIT
-5.3001	KITCHEN
-4.8229	KITE
-5.3001	KLY
-5.3001	KNEE
-3.8687	KNEW	-0.2069
-5.3001	KNIFE
-4.9990	KNIT
-5.3001	KNITS
-5.3001	KNITTED
-4.6980	KNITTING	-0.0859
-5.3001	KNOCK
-4.8229	KNOCKED	-0.1965
-5.3001	KNOCKIN
-5.3001	KNOCKING
-5.3001	KNOT
-2.1905	KNOW	-0.4579
-4.6011	KNOWING	-0.2407
-4.5219	KNOWLEDGE	-0.2825
-5.3001	KNOWLEDGEABLE
-4.4550	KNOWN
-4.1861	KNOWS	-0.0260
-5.3001	KNUCKLING
-4.5219	KOREAN	-0.0343
-5.3001	KOREANS
-5.3001	KREMLIN
-4.9990	KS
-5.3001	KUDOS
-4.2587	L	-0.0992
-5.3001	LA
-4.3970	LAB	-0.0834
-4.8229	LABEL
-5.3001	LABELLING
-5.3001	LABOR
-5.3001	LABORATORY
-5.3001	LABS
-5.3001	LACES
-4.8229	LACK	-0.5508
-5.3001	LADDER
-5.3001	LADDERS
-4.6980	LADY	-0.1382
-4.9990	LAID
-4.8229	LAKE	-0.1445
-5.3001	LAMB
-4.6980	LAME	-0.2847
-4.8229	LAMENT
-4.9990	LAMPS
-4.8229	LAND
-5.3001	LANDED
-4.9990	LANDING
-5.3001	LANDSCAPING
-4.9990	LANDSLIDE	-0.3429
-4.9990	LANE
-4.9990	LANES
-3.6469	LANGUAGE	-0.1908
-4.3001	LANGUAGES	-0.1736
-4.8229	LAPTOP
-4.4550	LARGE	-0.0206
-5.3001	LARGELY
-4.6011	LASER	-0.3947
-3.1665	LAST	-0.4894
-5.3001	LASTED
-4.2587	LATE	-0.0907
-4.3458	LATELY	-0.0670
-4.2209	LATER	-0.1799
-4.9990	LATIN
-3.9990	LAUGH	-0.2930
-4.6980	LAUGHED	-0.3370
-5.3001	LAUGHIN
-4.2209	LAUGHING	-0.4680
-4.6980	LAUGHS	-0.1377
-5.3001	LAUGHTER
-4.4550	LAW	-0.0699
-5.3001	LAWYER
-5.3001	LAWYERS
-5.3001	LAW_S
-5.3001	LAY
-5.3001	LAYOUT
-5.3001	LAZE
-4.3970	LAZY	-0.1655
-4.9990	LE
-4.1861	LEAD	-0.1078
-5.3001	LEADER
-4.9990	LEADING
-5.3001	LEADS
-5.3001	LEAN
-3.8529	LEARN	-0.1532
-4.3970	LEARNED	-0.1324
-4.3001	LEARNING	-0.0449
-5.3001	LEASH
-3.6011	LEAST	-0.1247
-3.9990	LEAVE	-0.1638
-5.3001	LEAVES
-4.3458	LEAVING	-0.0030
-5.3001	LECTURE
-4.9990	LECTURES	-0.3385
-5.3001	LEEWAY
-3.7438	LEFT	-0.1592
-5.3001	LEG
-4.6980	LEGAL	-0.2847
-5.3001	LEGGED
-5.3001	LEGISLATION
-5.3001	LEIS
-4.9990	LEISURE
-5.3001	LEISURELY
-4.9990	LEMME
-5.3001	LENGTH
-5.3001	LENIN
-5.3001	LENIN_S
-5.3001	LESBIAN
-4.1861	LESS	-0.0717
-5.3001	LESSONS
-3.4939	LET	-0.5329
-5.3001	LETHARGIC
-4.6980	LETS
-5.3001	LETTER
-5.3001	LETTERING
-4.8229	LETTERS	-0.1905
-4.6011	LETTING
-3.3916	LET_S	-0.4882
-3.8529	LEVEL	-0.2223
-4.9990	LI
-4.8229	LIBERAL	-0.1980
-4.8229	LIBRARY	-0.1445
-4.6011	LIE	-0.0946
-3.1417	LIFE	-0.3289
-4.6980	LIFE_S
-4.8229	LIFT
-5.3001	LIFTED
-5.3001	LIFTER
-5.3001	LIFTING
-3.6873	LIGHT	-0.1273
-4.9990	LIGHTEN	-0.3450
-5.3001	LIGHTER
-5.3001	LIGHTING
-5.3001	LIGHTNESS
-4.1861	LIGHTNING	-0.0598
-3.9021	LIGHTS	-0.1074
-1.8042	LIKE	-0.3174
-3.8687	LIKED	-0.4297
-4.8229	LIKELY	-0.5480
-4.3970	LIKES	-0.1313
-4.9990	LIKING
-5.3001	LIMBO
-5.3001	LIME
-5.3001	LIMIT
-5.3001	LIMITATIONS
-5.3001	LIMITED
-4.3001	LINE	-0.0524
-4.9990	LINED	-0.3450
-5.3001	LINES
-5.3001	LINGUISTIC
-3.9778	LINGUISTICS	-0.1175
-4.8229	LINGUISTS	-0.1445
-5.3001	LINING
-4.9990	LINK
-5.3001	LINKS
-5.3001	LIP
-4.8229	LIPS
-4.1240	LIST	-0.2161
-5.3001	LISTED
-3.8687	LISTEN	-0.5940
-4.6011	LISTENING	-0.6579
-4.4550	LISTS	-0.2633
-5.3001	LIT
-4.2587	LITERALLY	-0.0442
-4.6011	LITERARY	-0.0542
-4.9990	LITERATURE
-5.3001	LITTERED
-2.9163	LITTLE	-0.3113
-3.5007	LIVE	-0.3077
-3.9021	LIVED	-0.2289
-5.3001	LIVERPOOL
-3.9778	LIVES	-0.1896
-3.8529	LIVING	-0.2177
-5.3001	LO
-4.6011	LOAD	-0.2421
-5.3001	LOADED
-4.6011	LOADS	-0.3905
-5.3001	LOANS
-5.3001	LOATH
-5.3001	LOCAL
-4.9990	LOCATED
-4.6980	LOCK	-0.1311
-4.3458	LOCKED	-0.1148
-4.8229	LOCKS
-5.3001	LOG
-4.9990	LOGIC
-4.8229	LOGICAL
-4.9990	LOGICALLY
-5.3001	LOGO
-5.3001	LOGS
-5.3001	LOITERING
-4.2209	LONDON	-0.1316
-4.9990	LONELY
-3.2626	LONG	-0.2577
-5.3001	LONG-TERM
-3.9778	LONGER	-0.1435
-4.8229	LONGEST
-5.3001	LONGISH
-3.0376	LOOK	-0.3747
-3.9383	LOOKED	-0.1974
-4.6011	LOOKIN	-0.1076
-3.4080	LOOKING	-0.4357
-3.7438	LOOKS	-0.2912
-4.6011	LOOP	-0.1927
-5.3001	LOOPS
-4.8229	LOOSE
-4.1861	LOSE	+0.0152
-4.4550	LOSER	-0.1015
-4.8229	LOSERS
-5.3001	LOSES
-4.6980	LOSING
-4.8229	LOSS
-3.8851	LOST	-0.1749
-2.9290	LOT	-0.7137
-5.3001	LOTOPHOBE
-3.3810	LOTS	-1.0042
-3.9576	LOTTA	-0.0878
-4.0959	LOTTERY	-0.0557
-4.1539	LOUD	-0.1594
-5.3001	LOUDEST
-4.9990	LOUNGE	-0.3459
-5.3001	LOUNGING
-3.3605	LOVE	-0.1890
-4.6980	LOVED	-0.1337
-3.6980	LOVELY	-0.1232
-4.8229	LOVES	-0.1980
-5.3001	LOVIN
-5.3001	LOVING
-4.3970	LOW	-0.0641
-5.3001	LOWERED
-4.6980	LUCK	-0.0859
-5.3001	LUCKILY
-4.2587	LUCKY	-0.2015
-5.3001	LUGGING
-4.9990	LUMBER	-0.3460
-4.8229	LUMP	-0.1980
-5.3001	LUNATICS
-4.2209	LUNCH	-0.2646
-4.9990	LUNCHES
-4.8229	LUNCHTIME
-5.3001	LUXEMBURG
-5.3001	LUZ
-4.4550	LY
-4.5219	LYING	-0.0863
-4.0448	M	-0.1502
-5.3001	MACA
-5.3001	MACAU
-5.3001	MACCA
-5.3001	MACHETE
-4.2209	MACHINE	-0.1362
-4.9990	MACHINES
-5.3001	MACHINIST
-3.8087	MAD	-0.1758
-4.6980	MADAM	-0.2847
-4.9990	MADDEST	-0.3459
-3.6188	MADE	-0.3653
-4.9990	MADEA
-5.3001	MADNESS
-5.3001	MAGAZINE
-5.3001	MAGAZINES
-4.8229	MAGENTA
-5.3001	MAGIC
-4.3001	MAGICAL	-0.1175
-4.5219	MAGNETIC	-0.2989
-4.8229	MAIL
-4.0448	MAIN	-0.0560
-4.9990	MAINLY
-5.3001	MAINSTREAM
-4.9990	MAINTAIN
-5.3001	MAJESTY
-3.7816	MAJOR	-0.2218
-4.9990	MAJORCA
-4.5219	MAJORING	-0.2838
-4.8229	MAJORS	-0.1445
-2.9576	MAKE	-0.5936
-3.2173	MAKES	-0.7905
-3.7319	MAKING	-0.1574
-5.3001	MALARIA
-5.3001	MALAY
-5.3001	MALAYSIA
-4.8229	MALE
-5.3001	MALES
-4.8229	MALLARD	-0.1980
-5.3001	MALLARDS
-4.9990	MAMA
-3.4488	MAN	-0.2810
-4.0959	MANAGE	-0.3771
-4.4550	MANAGED	-0.9175
-4.9990	MANAGEMENT
-4.6011	MANAGER
-5.3001	MANAGERS
-5.3001	MANAGES
-5.3001	MANAGING
-4.6980	MANDARIN
-5.3001	MANDATORY
-5.3001	MANEUVER
-4.9990	MANIA
-5.3001	MANIC
-5.3001	MANIPULATED
-5.3001	MANIPULATOR
-5.3001	MANNER
-5.3001	MANNERS
-5.3001	MANOR
-5.3001	MANUAL
-3.4250	MANY	-0.2384
-4.8229	MAP
-5.3001	MARATHON
-5.3001	MARBLE
-4.9990	MARGARET
-5.3001	MARGARITA
-5.3001	MARGARITAS
-5.3001	MARIA_S
-5.3001	MARIGOLD
-5.3001	MARINE
-5.3001	MARITIME
-4.3970	MARK	-0.0794
-4.6980	MARKED	-0.0859
-5.3001	MARKET
-5.3001	MARKETED
-5.3001	MARKETS
-5.3001	MARKET_S
-4.6980	MARKING	-0.1263
-5.3001	MARKS
-4.1861	MARRIED	-0.1009
-5.3001	MARSH
-5.3001	MASK
-4.9990	MASS
-5.3001	MASSAGES
-5.3001	MASSIVE
-4.9990	MASTER
-4.9990	MASTERS
-5.3001	MASTER_S
-5.3001	MAT
-4.8229	MATCH
-5.3001	MATCHED
-4.9990	MATE
-4.6980	MATERIAL	-0.0859
-4.9990	MATERIALS
-4.9990	MATES
-4.3001	MATH	-0.0505
-5.3001	MATHEMATICAL
-5.3001	MATHEMATICALLY
-4.8229	MATHEMATICS	-0.1445
-5.3001	MATRICES
-5.3001	MATRIMONIALITY
-3.8687	MATTER	-0.2977
-5.3001	MATURE
-3.7816	MAY	-0.2371
-2.9636	MAYBE	-0.3269
-4.9990	MCDONALDS
-2.4303	ME	-0.4792
-4.6980	MEAL
-5.3001	MEALS
-2.8347	MEAN	-0.4311
-5.3001	MEANDER
-5.3001	MEANING
-3.9990	MEANS	-0.1466
-4.2209	MEANT	-0.1667
-4.9990	MEANTIME	-0.2925
-5.3001	MEASURE
-5.3001	MEASURES
-5.3001	MEASURING
-4.6980	MEAT
-5.3001	MEATLOAF
-4.3001	MED	-0.1713
-4.8229	MEDALS
-4.4550	MEDICAL	-0.0741
-4.9990	MEDICATED
-5.3001	MEDICATION
-4.4550	MEDICINAL	-0.2414
-4.4550	MEDICINE	-0.0206
-5.3001	MEDICINES
-5.3001	MEDICS
-5.3001	MEDIEVAL
-4.9990	MEDIOCRE	-0.2925
-5.3001	MEDITERRANEAN
-5.3001	MEDIUM
-3.7560	MEET	-0.3035
-4.0448	MEETING	-0.0239
-4.9990	MEETINGS
-5.3001	MEETS
-4.9990	MEGA
-5.3001	MELLOW
-5.3001	MELT
-5.3001	MELTED
-5.3001	MEMBER
-5.3001	MEMBERS
-5.3001	MEMORIAL
-5.3001	MEMORIES
-5.3001	MEMORIZE
-4.3458	MEMORY	-0.0586
-5.3001	MEMOS
-4.4550	MEN	-0.1095
-4.9990	MENTAL
-4.9990	MENTALLY
-4.8229	MENTION
-4.6011	MENTIONED
-5.3001	MENTIONING
-5.3001	MENTOR
-4.9990	MENU
-4.9990	MENU_S	-0.3429
-4.6980	MEN_S
-5.3001	MEO
-5.3001	MERCENARY
-5.3001	MESH
-5.3001	MESMERISED
-4.3458	MESS	-0.0030
-5.3001	MESSAGES
-5.3001	MESSAGING
-4.9990	MESSED	-0.3450
-5.3001	MESSES
-4.6980	MESSING	-0.1385
-4.6980	MESSY
-3.4612	MET	-0.5270
-5.3001	METAL
-5.3001	METALLIC
-5.3001	METAPHYSICAL
-5.3001	METHANE
-4.9990	METHOD
-4.8229	METHODOLOGY	-0.1976
-4.9990	METHODS
-5.3001	METRE
-5.3001	METRES
-4.0959	MEXICAN	-0.3115
-3.2789	MH	-0.4850
-2.6090	MHM	-1.1893
-4.9990	MHMM	-0.2925
-5.3001	MHMMM
-5.3001	MIA
-4.2209	MIC	-0.0707
-4.9990	MICROBIOLOGY
-4.4550	MICROPHONE	-0.1879
-4.6011	MICROPHONES
-4.9990	MICROWAVE
-5.3001	MIC_S
-5.3001	MID
-5.3001	MID-LENGTH
-3.8377	MIDDLE	-0.8894
-4.9990	MIDWIVES
-5.3001	MIGH
-3.3223	MIGHT	-0.3677
-5.3001	MIGHTN_T
-4.9990	MIGHT_VE	-0.3453
-5.3001	MIGRATING
-4.9990	MILD	-0.2925
-4.6980	MILE
-4.5219	MILES
-4.3970	MILITARY
-5.3001	MILK
-4.8229	MILLAR
-5.3001	MILLILITERS
-4.4550	MILLION	-0.0741
-5.3001	MILLIONAIRE
-5.3001	MILLIONTH
-3.6768	MIND	-0.1512
-4.6980	MINDED
-3.7560	MINE	-0.1277
-5.3001	MINERAL
-5.3001	MINERALS
-5.3001	MINER_S
-4.5219	MINE_S	-0.0809
-4.8229	MINI
-5.3001	MINIMAL
-5.3001	MINIMUM
-5.3001	MINISCULE
-4.3970	MINOR	-0.2532
-5.3001	MINORED
-5.3001	MINORITIES
-5.3001	MINUS
-3.8087	MINUTE	-0.1797
-3.7319	MINUTES	-0.2741
-5.3001	MIRROR
-5.3001	MISCONNECTIONS
-5.3001	MISERAB
-3.4805	MISERABLE	-0.3093
-4.1539	MISERY	-0.1007
-5.3001	MISMATCH
-4.1240	MISS	-0.2372
-4.3458	MISSED	-0.2486
-5.3001	MISSES
-4.6011	MISSING
-5.3001	MISSING_
-4.9990	MISSION
-5.3001	MIST
-5.3001	MISTAKE
-4.9990	MISTAKEN
-5.3001	MISTAKES
-5.3001	MISUNDERSTANDING
-5.3001	MISUNDERSTOOD
-5.3001	MITTENS
-4.8229	MIX
-4.6011	MIXED	-0.1068
-5.3001	MIXING
-4.8229	MIXTURE	-0.1938
-5.3001	MMMH
-3.2282	MMMM	-0.8824
-4.9990	MO
-4.4550	MOAN
-4.9990	MOANER
-5.3001	MOANING
-5.3001	MOANS
-4.2587	MOBILE	-1.0863
-4.9990	MOCK
-5.3001	MOCKED
-4.9990	MOCKING
-5.3001	MODALITIES
-5.3001	MODE
-4.8229	MODEL	-0.1445
-4.9990	MODEL_S
-4.9990	MODERN
-5.3001	MOIRA
-4.9990	MOLECULAR
-4.3458	MOM
-3.7560	MOMENT	-0.1750
-4.6980	MOMENTS
-5.3001	MOMENT_S
-5.3001	MOMMY
-5.3001	MOM_S
-5.3001	MON
-4.6011	MONDAY
-5.3001	MONDAY_S
-3.4676	MONEY	-0.2787
-5.3001	MONEYS
-4.6980	MONGOLIA	-0.2839
-4.9990	MONITOR
-4.8229	MONKEY
-4.6980	MONKEYS	-0.2847
-5.3001	MONKS_
-3.7560	MONTH	-0.1997
-5.3001	MONTHLY
-3.6566	MONTHS	-0.2586
-5.3001	MONTH_S
-5.3001	MONUMENTAL
-3.9199	MOOD	-0.1836
-5.3001	MOON
-4.9990	MOORE
-4.9990	MORALLY	-0.3458
-2.8818	MORE	-0.1348
-5.3001	MORNIN
-3.6280	MORNING	-0.3206
-4.6980	MORNINGS	-0.1386
-4.4550	MORPHOLOGY	-0.1071
-4.8229	MOSCOW	-0.1905
-3.2707	MOST	-0.3905
-4.2209	MOSTLY
-4.3001	MOTHER
-5.3001	MOTHERFUCKER
-4.6011	MOTHERS	-0.1077
-5.3001	MOTIONS
-5.3001	MOTIVATE
-5.3001	MOTIVATED
-5.3001	MOTIVATING
-4.6011	MOTIVATION
-5.3001	MOTIVATIONAL
-4.9990	MOTOR
-5.3001	MOTTO
-4.9990	MOUNT
-4.6980	MOUNTAIN
-4.0959	MOUNTAINS	-0.1715
-5.3001	MOUSE
-4.5219	MOUTH	-0.1359
-4.8229	MOUTHS	-0.1445
-3.9383	MOVE	-0.0558
-3.8687	MOVED	-0.2761
-4.8229	MOVEMENT
-5.3001	MOVEMENTS
-3.7203	MOVIE	-0.1860
-4.0448	MOVIES	-0.1219
-5.3001	MOVIE_S
-3.9576	MOVING	-0.1174
-5.3001	MOVING_S
-4.8229	MU	-0.5014
-2.8407	MUCH	-0.2349
-5.3001	MUCHAS
-5.3001	MUDDY
-5.3001	MUGGED
-5.3001	MULTI
-5.3001	MULTIPLE
-5.3001	MULTIPLICATION
-5.3001	MUM
-5.3001	MUMBLED
-4.9990	MUMMY
-5.3001	MURDER
-4.8229	MURDERED
-4.6980	MUSCLE	-0.1394
-5.3001	MUSCLES
-5.3001	MUSH
-4.9990	MUSHROOM
-3.9383	MUSIC	-0.0968
-4.9990	MUSICAL
-4.9990	MUSICIAN
-4.9990	MUSICIANS
-4.9990	MUSLIM	-0.3460
-3.6666	MUST	-0.5927
-5.3001	MUSTN_T
-5.3001	MUST_VE
-5.3001	MUTATIONS
-4.9990	MUTUAL	-0.3460
-4.9990	MUY
-2.4080	MY	-0.3161
-5.3001	MYSEL
-3.5597	MYSELF	-0.1605
-5.3001	MYSTERIOUS
-4.9990	MYSTERY	-0.3460
-5.3001	MYSTICAL
-4.9990	MYTH
-3.5442	N	-0.0461
-4.3970	NA	-0.0641
-5.3001	NAGGING
-4.3458	NAH	-0.1215
-5.3001	NAIL
-5.3001	NAKED
-3.7438	NAME	-0.5091
-5.3001	NAMED
-4.1861	NAMES	-0.1804
-4.2209	NAME_S	-0.5235
-4.8229	NANNY
-4.8229	NAP	-0.1445
-5.3001	NARK
-5.3001	NARROW
-4.0696	NASTY	-0.1116
-5.3001	NATION
-5.3001	NATIONAL
-5.3001	NATIVE
-4.3970	NATURAL
-4.6980	NATURALLY
-4.6011	NATURE
-5.3001	NATURED
-5.3001	NAUGHTY
-5.3001	NAVY
-4.9990	NAW
-5.3001	ND
-4.8229	NE
-4.3001	NEAR	-0.2078
-4.8229	NEARBY
-4.3970	NEARLY	-0.0640
-4.2587	NEAT	-0.5107
-4.1539	NECESSARILY	-0.0273
-4.9990	NECESSARY
-5.3001	NECESSITY
-4.6980	NECK
-5.3001	NECKLACE
-5.3001	NECK_S
-3.0852	NEED	-0.5354
-4.1539	NEEDED	-0.2363
-5.3001	NEEDLE
-3.9990	NEEDS	-0.3369
-4.8229	NEG
-4.0448	NEGATIVE	-0.0995
-4.8229	NEGATIVES
-4.1861	NEITHER	-0.4657
-5.3001	NEMESIS
-5.3001	NERDY
-4.9990	NERVES
-4.9990	NERVOUS
-5.3001	NESS
-5.3001	NEST
-5.3001	NET
-5.3001	NETWORK
-5.3001	NETWORKS
-4.8229	NEURO	-0.1980
-5.3001	NEUTRAL
-3.1125	NEVER	-0.2610
-5.3001	NEVERMIND
-4.9990	NEVERTHELESS
-3.3758	NEW	-0.1034
-5.3001	NEWCASTLE
-4.1539	NEWS	-0.0617
-3.4024	NEXT	-0.4382
-4.9990	NGO
-5.3001	NGOS
-5.3001	NIALL
-5.3001	NIALL_S
-2.7378	NICE	-0.3276
-4.6980	NICELY
-4.6011	NICER	-0.1075
-4.9990	NICEST
-4.9990	NICK
-5.3001	NICKED
-5.3001	NIECE
-5.3001	NIGGER
-5.3001	NIGGLE
-5.3001	NIGGLES
-3.6469	NIGHT	-0.1645
-4.9990	NIGHTMARE
-4.9990	NIGHTS
-5.3001	NIGHT_S
-3.6980	NINE	-0.2074
-4.1240	NINETEEN	-0.1380
-5.3001	NINETEENTH
-5.3001	NINETIES
-4.2209	NINETY	-0.2611
-4.9990	NIPPED	-0.3456
-5.3001	NIPPLES
-2.3233	NO	-0.5470
-3.8529	NOBODY	-0.1117
-4.9990	NOBODY_S
-5.3001	NODDING
-3.9199	NOISE	-0.3324
-4.3970	NOISES	-0.0834
-4.6011	NOISIER	-0.1073
-5.3001	NOISIEST
-4.3458	NOISY	-0.1418
-5.3001	NOMINAL
-5.3001	NOMINATED
-4.1861	NON	-0.1255
-4.4550	NONE	-0.3521
-4.9990	NONSENSE
-5.3001	NONSTARTER
-5.3001	NOODLES
-5.3001	NOON
-4.6980	NOPE	-0.5421
-4.1861	NORMAL	-0.0685
-5.3001	NORMALITY
-4.2587	NORMALLY	-0.0408
-5.3001	NORMS
-4.8229	NORTH
-4.6011	NORTHERN	-0.1077
-4.9990	NORTHWEST
-4.3001	NORWEGIAN	-0.0524
-4.4550	NOSE	-0.1071
-2.3691	NOT	-0.3291
-5.3001	NOTE
-5.3001	NOTES
-3.3605	NOTHING	-0.2324
-4.9990	NOTHING_S
-4.6011	NOTICE	-0.0995
-4.5219	NOTICED	-0.1407
-4.9990	NOTION
-5.3001	NOTIONS
-4.6980	NOUGHTS	-0.2839
-4.9990	NOUNS	-0.2925
-4.9990	NOVEL
-4.8229	NOVELLA	-0.1445
-4.9990	NOVELS
-4.5219	NOVEMBER	-0.2453
-2.8785	NOW	-0.4297
-4.8229	NOWADAYS
-4.6011	NOWHERE
-5.3001	NT
-5.3001	NUALA_S
-5.3001	NUMB
-3.8529	NUMBER	-0.2165
-5.3001	NURSERY
-4.8229	NURSING
-4.9990	NUTS	-0.2925
-5.3001	NUTTY
-3.8851	O	-0.2291
-5.3001	OAKEY
-5.3001	OB
-5.3001	OBADI
-3.3916	OBADIAH	-0.3656
-5.3001	OBADIAH_S
-5.3001	OBIDI
-4.3458	OBIDIAH	-0.1215
-4.4550	OBJECT	-0.0741
-5.3001	OBJECTIVELY
-5.3001	OBJECTS
-5.3001	OBLIGATION
-5.3001	OBLIGATIONS
-5.3001	OBNOXIOUS
-5.3001	OBSERVANT
-4.9990	OBSERVATION
-5.3001	OBSERVING
-4.8229	OBSTACLE	-0.1445
-5.3001	OBSTACLES
-4.9990	OBVIOUS
-4.1539	OBVIOUSLY	+0.0181
-5.3001	OCCASIONAL
-4.6980	OCCASIONALLY
-5.3001	OCCASIONS
-5.3001	OCCASSIONALLY
-5.3001	OCCUPATIONAL
-5.3001	OCCUPIED
-5.3001	OCCUPYING
-5.3001	OCCUR
-5.3001	OCCURRED
-5.3001	OCCURRING
-4.9990	OCEAN
-4.9990	OCEANS
-4.8229	OCTOBER	-0.1952
-4.9990	OCTOPUS
-4.4550	ODD
-5.3001	ODDEST
-5.3001	ODDITIES
-4.9990	ODDS
-5.3001	OEDIPUS
-2.0181	OF	-0.2916
-5.3001	OFAY
-3.1154	OFF	-0.2407
-5.3001	OFFEN
-4.4550	OFFER	-0.1523
-5.3001	OFFERING
-4.3001	OFFICE	+0.0030
-4.8229	OFFICER	-0.1888
-5.3001	OFFICES
-4.6011	OFFICIAL	-0.1927
-5.3001	OFFICIALLY
-3.7319	OFTEN	-0.1172
-2.0610	OH	-0.7768
-5.3001	OHS
-4.9990	OIL	-0.2925
-2.9799	OK	-0.5558
-2.4952	OKAY	-0.9129
-5.3001	OL
-3.5147	OLD	-0.0894
-4.4550	OLDER	-0.0206
-5.3001	OLDEST
-5.3001	OLYMPIC
-5.3001	OLYMPICS
-5.3001	OLYMPUS
-5.3001	OMNI
-2.4562	ON	-0.4817
-3.6873	ONCE	-0.2334
-2.5799	ONE	-0.3358
-5.3001	ONE-AND-A-HALF
-3.5758	ONES	-0.4261
-4.2209	ONE_S	-0.0782
-5.3001	ONGOING
-5.3001	ONION
-4.3458	ONLINE	-0.1947
-3.1697	ONLY	-0.0869
-5.3001	ONSLAUGHT
-4.6011	ONTO	-0.1070
-3.7319	OOH	-0.3652
-5.3001	OOHH
-4.6011	OOOH	-0.0542
-5.3001	OOOHH
-4.8229	OOOHHH
-5.3001	OOP
-3.9383	OOPS	-0.7061
-3.7560	OPEN	-0.1546
-4.6980	OPENED
-4.5219	OPENING	-0.1943
-4.9990	OPENS
-5.3001	OPERA
-4.4550	OPINION	-0.0206
-4.9990	OPINIONS
-4.6011	OPPORTUNITIES
-4.2587	OPPORTUNITY	-0.1439
-4.6980	OPPOSED	-0.5887
-5.3001	OPPOSING
-4.8229	OPPOSITE
-4.9990	OPS
-5.3001	OPTICAL
-4.3970	OPTIMISM	-0.0603
-4.6980	OPTIMIST	-0.0859
-4.6980	OPTIMISTIC
-4.8229	OPTION	-0.1445
-4.8229	OPTIONS	-0.1938
-2.5427	OR	-0.3339
-4.5219	ORANGE	-0.1943
-4.9990	ORB	-0.3449
-4.6011	ORCHESTRA	-0.1927
-5.3001	ORCHESTRAL
-5.3001	ORCHESTRAS
-4.3970	ORDER
-5.3001	ORDERED
-5.3001	ORDERLY
-5.3001	ORDERS
-5.3001	ORGAN
-5.3001	ORGANELLES
-5.3001	ORGANIC
-4.8229	ORGANISATION
-4.4550	ORGANISE	-0.0740
-3.7949	ORGANISED	-0.1790
-5.3001	ORGANISES
-4.8229	ORGANISING
-5.3001	ORGANIZATION
-5.3001	ORGIES
-5.3001	ORIENTAL
-4.9990	ORIENTATION
-5.3001	ORIENTED
-4.9990	ORIGINAL
-4.4550	ORIGINALLY	-0.1879
-5.3001	ORK
-5.3001	ORLEANS
-5.3001	ORMEAU
-5.3001	ORPHANS
-5.3001	ORT
-5.3001	ORTHOGRAPHY
-5.3001	OSS
-5.3001	OT
-5.3001	OTH
-2.9883	OTHER	-0.3394
-4.4550	OTHERS
-4.2587	OTHERWISE	-0.1359
-4.8229	OTHER_S
-4.4550	OUCH	-0.8710
-4.3970	OUGHT	-0.3390
-5.3001	OUL
-3.4676	OUR	-0.0292
-4.8229	OURS
-4.8229	OURSELVES
-2.6636	OUT	-0.4826
-4.9990	OUTA
-5.3001	OUTBOXES
-4.8229	OUTDOOR
-5.3001	OUTDOORS
-5.3001	OUTER
-5.3001	OUTFIT
-4.9990	OUTLINE
-5.3001	OUTLINES
-4.8229	OUTLOOK
-4.9990	OUTRAGEOUS
-5.3001	OUTRIGHT
-3.8851	OUTSIDE	-0.1112
-4.3458	OUTTA	-0.1133
-4.9990	OVEN
-5.3001	OVENS
-3.0645	OVER	-0.3706
-5.3001	OVER-REA
-4.4550	OVERALL	-0.0740
-5.3001	OVERDUE
-5.3001	OVERENTHUSIASTIC
-5.3001	OVERESTIMATED
-5.3001	OVERHEARD
-5.3001	OVERLAP
-5.3001	OVERLY
-5.3001	OVERNIGHT
-5.3001	OVERPASS
-5.3001	OVERPRODUCED
-5.3001	OVERREACTED
-5.3001	OVERSPEND
-4.9990	OVERWEIGHT
-4.3458	OW	-0.2925
-5.3001	OWED
-3.7438	OWN	-0.0878
-4.9990	OWNED
-4.9990	OWNER
-5.3001	OX
-4.8229	OXFORD
-5.3001	OZONE
-4.5219	O_CLOCK	-0.1407
-4.6980	P	-0.1394
-4.8229	PA	-0.5014
-5.3001	PACE
-4.3970	PACK	-0.1735
-4.8229	PACKAGE
-4.9990	PACKAGES
-4.9990	PACKED
-5.3001	PACKS
-4.9990	PAD	-0.2925
-4.3458	PAGE	-0.1419
-4.5219	PAGES	-0.0343
-4.1240	PAID	-0.2169
-4.1539	PAIN	-0.0927
-4.8229	PAINFUL
-5.3001	PAINFULLY
-5.3001	PAINLESS
-4.6980	PAINTED
-4.3001	PAINTING	-0.1086
-5.3001	PAINTINGS
-4.6011	PAIR	-0.2421
-4.9990	PALATABLE
-5.3001	PALE
-5.3001	PALISTINIANS
-5.3001	PAMPER
-5.3001	PANG
-5.3001	PANIC
-5.3001	PANICKY
-4.8229	PANTS
-4.1539	PAPER	-0.0340
-4.3970	PAPERS	-0.0566
-5.3001	PAPERWORK
-5.3001	PAR
-4.9990	PARADISE	-0.2925
-5.3001	PARADOXICAL
-5.3001	PARAKEETS
-4.9990	PARDON
-5.3001	PARENT
-3.7949	PARENTS	-0.0873
-4.9990	PARENTS_	-0.3460
-5.3001	PARENT_S
-5.3001	PARIS
-4.2587	PARK	-0.1462
-4.6980	PARKED
-4.3970	PARKING	-0.0641
-5.3001	PARROT
-3.6011	PART	-0.5346
-4.6980	PARTICIPANT	-0.1394
-4.9990	PARTICIPATE
-5.3001	PARTICIPATING
-5.3001	PARTICIPATION
-3.9576	PARTICULAR	-0.1294
-4.0448	PARTICULARLY	-0.0273
-4.3001	PARTIES	-0.3629
-4.9990	PARTLY
-4.3458	PARTS	-0.2957
-4.3458	PARTY	-0.0546
-4.3970	PASS	-0.0834
-5.3001	PASSAGE
-5.3001	PASSED
-4.9990	PASSENGER
-4.8229	PASSES
-4.6980	PASSING	-0.1391
-5.3001	PASSION
-4.9990	PASSIVE
-5.3001	PASSPORT
-5.3001	PASSWORD
-4.1240	PAST	-0.0935
-4.9990	PATCH	-0.2925
-4.6011	PATH
-4.6980	PATHETIC
-4.9990	PATHWAYS
-5.3001	PATIENCE
-5.3001	PATIENTS
-5.3001	PATIO
-5.3001	PATRIOTIC
-5.3001	PATRONAGE
-5.3001	PATRONISING
-5.3001	PATRONISINGLY
-5.3001	PATRONS
-5.3001	PATROUISED
-5.3001	PATTERNS
-4.1539	PAUL	-1.0926
-5.3001	PAUSES
-5.3001	PAWS
-3.7816	PAY	-0.2072
-4.9990	PAYIN
-4.6011	PAYING
-5.3001	PAYMENT
-5.3001	PAYMENTS
-5.3001	PAYS
-5.3001	PE
-4.8229	PEACEFUL
-5.3001	PEANUT
-5.3001	PEANUTS
-5.3001	PEAS
-5.3001	PEAT
-5.3001	PECULIAR
-5.3001	PEDESTRIANS
-5.3001	PEDESTRIAN_S
-5.3001	PEEK
-4.9990	PEERS
-4.9990	PEN
-5.3001	PENCILS
-5.3001	PENGUIN
-4.6011	PENNIES	-0.1927
-4.5219	PENS	-0.0343
-5.3001	PENT
-2.5359	PEOPLE	-0.4088
-5.3001	PEOPLES
-5.3001	PEOPLES_
-5.3001	PEOPLE_D
-5.3001	PEOPLE_S
-4.2587	PER	-0.0455
-4.5219	PERCENT	-0.1397
-5.3001	PERCENTAGE
-5.3001	PERCEPTION
-5.3001	PERCEPTIONS
-5.3001	PERCH
-4.3001	PERFECT	-0.0524
-4.5219	PERFECTLY	-0.0878
-4.9990	PERFORMANCE
-5.3001	PERFORMED
-4.0959	PERHAPS	-0.1576
-4.4550	PERIOD	-0.0699
-4.9990	PERIODS
-5.3001	PERIWINKLES
-5.3001	PERMANENT
-5.3001	PERMISSION
-5.3001	PERMIT
-5.3001	PERMITTED
-5.3001	PERSERVERANCE
-5.3001	PERSEVERE
-3.4193	PERSON	-0.2066
-4.9990	PERSONAL
-4.8229	PERSONALITY
-4.6011	PERSONALLY
-5.3001	PERSONNEL
-4.6011	PERSON_S
-4.6980	PERSPECTIVE
-5.3001	PERTH
-4.9990	PERU
-5.3001	PESGARA
-5.3001	PESSIMISM
-4.6980	PESSIMIST
-4.3970	PESSIMISTIC	-0.0834
-4.6011	PET	-0.0995
-5.3001	PETER
-5.3001	PETS
-5.3001	PETTY
-5.3001	PF
-4.8229	PHASE
-4.3458	PHD	-0.0030
-5.3001	PHENOMENA
-4.8229	PHENOMENAL	-0.1445
-5.3001	PHILOS
-4.8229	PHILOSOPHERS
-4.8229	PHILOSOPHICAL
-4.3970	PHILOSOPHY	-0.1295
-4.9990	PHOBIA	-0.2925
-3.7319	PHONE	-0.1079
-4.6011	PHONED	-0.1068
-4.9990	PHONEMES
-4.3458	PHONES	-0.1215
-4.3970	PHONETICS	-0.6772
-5.3001	PHONING
-4.4550	PHONOLOGY	-0.1095
-5.3001	PHOTO
-4.4550	PHOTOGRAPH	-0.1543
-5.3001	PHOTOGRAPHED
-5.3001	PHOTOGRAPHERS
-4.5219	PHOTOGRAPHS	-0.1407
-5.3001	PHOTONS
-4.8229	PHOTOS
-5.3001	PHO_S
-4.6980	PHRASE	-0.1379
-5.3001	PHRASES
-4.8229	PHYSICAL
-4.8229	PHYSICALLY
-4.5219	PHYSICS	-0.1407
-4.6011	PHYSIOLOGY	-0.1927
-4.6011	PIANO	-0.2463
-4.3970	PIANOS	-0.2387
-5.3001	PIC
-3.9383	PICK	-0.2468
-4.6980	PICKED	-0.1385
-4.8229	PICKIN	-0.5542
-4.9990	PICKING
-5.3001	PICKS
-5.3001	PICKY
-5.3001	PICKY_S
-4.1861	PICTURE	-0.1591
-4.1861	PICTURES	-0.1106
-5.3001	PIE
-4.4550	PIECE	-0.3521
-4.6980	PIECES
-5.3001	PIER
-4.6980	PIG
-4.9990	PIGS
-4.8229	PILE
-5.3001	PILLAR
-5.3001	PILOT
-5.3001	PINCH
-4.8229	PINE	-0.1980
-5.3001	PINEAPPLE
-4.8229	PINEAPPLES
-5.3001	PING
-5.3001	PINION
-4.6980	PINK	-0.1394
-5.3001	PINS
-4.9990	PINTS
-4.9990	PIPE
-5.3001	PIPERS
-5.3001	PIPES
-4.9990	PIPPA
-5.3001	PIPPA_S
-4.5219	PISS	-0.3309
-4.1240	PISSED	-0.9103
-4.8229	PISSES	-0.1964
-5.3001	PISSING
-5.3001	PIT
-5.3001	PITCHING
-5.3001	PITIFUL
-4.9990	PITT
-4.5219	PITY	-0.1407
-5.3001	PIXEL
-4.9990	PIXELLATED	-0.3432
-4.5219	PIZZA	-0.2453
-3.3316	PLACE	-0.3672
-4.9990	PLACED
-3.8687	PLACES	-0.2656
-4.9990	PLAID
-3.6373	PLAN	-0.2911
-4.8229	PLANE
-5.3001	PLANES
-4.8229	PLANET
-5.3001	PLANETS
-4.4550	PLANNED	-0.0732
-4.0959	PLANNING	-0.2543
-3.9021	PLANS	-0.4965
-4.4550	PLANT
-4.9990	PLANTING
-4.3970	PLANTS
-5.3001	PLASMA
-4.6011	PLASTIC	-0.1077
-4.8229	PLATE
-5.3001	PLATELET
-4.9990	PLATELETS
-5.3001	PLATTER
-4.9990	PLATTERS
-3.9021	PLAY	-0.1447
-4.2587	PLAYED	-0.0895
-5.3001	PLAYERS
-5.3001	PLAYIN
-4.2587	PLAYING	-0.0446
-4.6011	PLAYS
-4.6011	PLEASANT
-4.0448	PLEASE	-0.2017
-4.3970	PLEASED	-0.1676
-4.3970	PLEASURE	-0.3022
-4.1861	PLENTY	-0.6326
-5.3001	PLONK
-5.3001	PLUG
-5.3001	PLUGS
-4.9990	PLUM
-4.8229	PLUMS
-4.6980	PLUS	-0.1312
-5.3001	PLY
-5.3001	PO
-4.8229	POCKET	-0.1445
-5.3001	POD
-4.9990	POEM
-4.9990	POEMS
-3.3970	POINT	-0.2590
-4.9990	POINTED
-4.9990	POINTING
-4.8229	POINTLESS
-4.8229	POINTS
-4.9990	POISONED	-0.3460
-4.9990	POISONING
-4.9990	POISONOUS
-5.3001	POLES
-4.4550	POLICE	-0.0206
-4.8229	POLICY
-5.3001	POLITE
-5.3001	POLITENESS
-4.6011	POLITICAL
-4.8229	POLITICIANS
-5.3001	POLITICIZED
-4.8229	POLITICS
-4.9990	POMMEL	-0.3460
-5.3001	PONDERING
-5.3001	PONY
-5.3001	PONYTAIL
-4.2209	POOL	-0.1305
-5.3001	POOLS
-4.3458	POOP	-0.1169
-4.2587	POOR	-0.0456
-4.8229	POP	-0.1445
-4.9990	POPPED	-0.3450
-3.2432	POPPY	-0.3858
-4.9990	POPPY_S
-5.3001	POPS
-4.8229	POPULAR	-0.5014
-5.3001	POPULATION
-5.3001	PORCUPINE
-4.5219	PORK	-0.1904
-5.3001	PORPOISE
-5.3001	PORTIONS
-5.3001	POS
-3.7686	POSITIVE	-0.1485
-4.6011	POSITIVELY
-5.3001	POSITIVENESS
-4.9990	POSITIVES	-0.2925
-4.9990	POSSIBILITY
-4.1539	POSSIBLE	-0.1348
-4.2587	POSSIBLY	-0.0416
-5.3001	POSSUM
-4.9990	POST
-5.3001	POST-GRAD
-4.9990	POSTER
-4.9990	POSTS	-0.3391
-4.9990	POT
-4.9990	POTS
-5.3001	POTTER
-5.3001	POTTER_S
-4.3458	POUNDS	-0.3461
-5.3001	POURING
-5.3001	POW
-4.6011	POWER
-4.9990	POWERED
-5.3001	POWERFUL
-5.3001	POWERS
-5.3001	PRACTIC
-4.1240	PRACTICAL	-0.1227
-4.8229	PRACTICALLY
-4.6980	PRACTICE	-0.0859
-4.9990	PRACTICING
-4.5219	PRAGMATIC	-0.0343
-5.3001	PRAM
-5.3001	PRANK
-5.3001	PRAT
-4.3458	PRE	-0.1194
-5.3001	PRECIOUS
-5.3001	PRECISE
-4.6011	PRECISELY	-0.1927
-4.9990	PRECISION
-5.3001	PREDICT
-5.3001	PREDICTABLY
-4.4550	PREFER	-0.2616
-4.9990	PREFERABLY
-5.3001	PREFERENCE
-5.3001	PREFERENCES
-5.3001	PREGNANT
-5.3001	PREHISTORIC
-5.3001	PRELIMINARY
-5.3001	PREMISE
-5.3001	PREMIUM
-4.9990	PREPARE	-0.3441
-4.6011	PREPARED	-0.1058
-4.8229	PREPARING
-5.3001	PREREQUISITES
-5.3001	PRESCRIBE
-5.3001	PRESCRIPTION
-4.2209	PRESENT	-0.0328
-4.8229	PRESENTATION
-4.9990	PRESENTATIONS
-4.8229	PRESENTING
-4.3001	PRESENTS	-0.1583
-5.3001	PRESERVED
-4.8229	PRESS
-4.3458	PRESSURE	-0.2177
-4.9990	PRESSURES
-5.3001	PRESTIGE
-4.9990	PRESTIGIOUS
-4.3970	PRETEND
-5.3001	PRETENDED
-4.9990	PRETENDING	-0.3390
-5.3001	PRETENDS
-5.3001	PRETENTIOUS
-2.9969	PRETTY	-0.3745
-5.3001	PREVENTING
-4.6011	PREVIOUS
-5.3001	PREY
-5.3001	PREYING
-4.6980	PRICE
-4.6980	PRICES
-4.9990	PRIDE
-5.3001	PRIMA
-5.3001	PRIMARY
-5.3001	PRINTED
-4.9990	PRINTING
-5.3001	PRIOR
-4.6980	PRIORITIES
-5.3001	PRIORITISED
-4.8229	PRISON	-0.1445
-4.5219	PRIVATE	-0.1980
-4.6980	PRIZE	-0.1394
-5.3001	PRO
-4.9990	PROACTIVE
-5.3001	PROB
-3.0448	PROBABLY	-0.1577
-5.3001	PROBED
-5.3001	PROBING
-3.7949	PROBLEM	-0.2246
-3.9990	PROBLEMS	-0.0906
-5.3001	PROCEDURES
-4.3001	PROCESS	+0.0030
-4.9990	PROCESSING
-5.3001	PROCESS_LL
-4.5219	PRODUCE	-0.0812
-5.3001	PRODUCED
-5.3001	PRODUCES
-5.3001	PRODUCT
-5.3001	PRODUCTION
-4.3001	PRODUCTIVE	-0.1080
-4.9990	PRODUCTIVITY
-4.9990	PRODUCTS
-4.3458	PROFESSIONAL	-0.0659
-4.3458	PROFESSOR	-0.1215
-4.3458	PROFESSORS	-0.1420
-5.3001	PROFESSORS_
-4.9990	PROFICIENCIES
-5.3001	PROFICIENCY
-4.6980	PROFICIENT	-0.3351
-5.3001	PROFIT
-4.1240	PROGRAM	-0.1232
-4.6980	PROGRAMME
-4.9990	PROGRAMMED
-5.3001	PROGRAMMES
-4.9990	PROGRAMS
-5.3001	PROGRAM_S
-5.3001	PROGRESS
-5.3001	PROGRESSING
-5.3001	PROGRESSIVELY
-4.3970	PROJECT	-0.0106
-5.3001	PROJECTING
-5.3001	PROJECTION
-5.3001	PROJECTOR
-4.6980	PROJECTS
-5.3001	PROMISE
-5.3001	PROMISED
-4.9990	PROMISING
-4.9990	PROMOTED	-0.3385
-5.3001	PROMOTES
-5.3001	PROMOTION
-5.3001	PROMOTIONS
-5.3001	PRONE
-4.4550	PRONOUNCE	-0.0684
-4.6980	PRONUNCIATION
-4.6011	PROOF
-4.3970	PROPER	-0.0640
-4.6980	PROPERLY
-5.3001	PROPERTIES
-5.3001	PROPPED
-5.3001	PROSPECTIVE
-5.3001	PROSTITUTES
-4.9990	PROTECT
-4.9990	PROTECTING
-4.9990	PROTECTION
-5.3001	PROTESTING
-5.3001	PROTOCOLS
-4.9990	PROUD
-5.3001	PROVIDE
-5.3001	PROVIDES
-5.3001	PROVIDING
-5.3001	PRUD
-3.2547	PRUDENCE	-0.3904
-5.3001	PS
-4.6980	PSYCH
-5.3001	PSYCHOLOGICAL
-4.9990	PSYCHOLOGIST
-5.3001	PSYCHOLOGISTS
-3.9576	PSYCHOLOGY	-0.1416
-4.8229	PUB
-4.3001	PUBLIC	-0.6989
-4.8229	PUBLICATIONS
-4.9990	PUBLISH
-4.8229	PUBLISHED
-4.6980	PUBLISHING
-4.8229	PUBS
-5.3001	PUDGY
-4.8229	PUFFS	-0.1445
-5.3001	PUFFY
-4.5219	PULL	-0.0877
-4.6980	PULLED
-4.9990	PULLING
-4.9990	PULLS
-4.8229	PUNCH
-5.3001	PUNCHES
-4.9990	PUNGENT
-5.3001	PUNISHMENT
-4.9990	PUP
-5.3001	PUPPIES
-5.3001	PUPUSA_S
-5.3001	PURCHASES
-4.9990	PURE
-4.8229	PURPLE
-4.8229	PURPOSE	-0.1967
-4.9990	PURPOSELY
-5.3001	PURPOSES
-5.3001	PURRS
-5.3001	PURSE
-4.8229	PURSUE
-5.3001	PURSUED
-4.9990	PUSH
-4.8229	PUSHED	-0.1910
-4.9990	PUSHING
-4.9990	PUSHY	-0.3458
-3.3088	PUT	-0.3638
-4.9990	PUTS
-4.4550	PUTTING
-5.3001	PUZZLE
-5.3001	PUZZLED
-5.3001	PY
-5.3001	Q
-4.3970	QUAD	-0.2387
-5.3001	QUAKE
-5.3001	QUALIFICATION
-5.3001	QUALIFIED
-5.3001	QUALIFY
-4.9990	QUALITIES
-4.4550	QUALITY	-0.0699
-3.7319	QUARTER	-0.3246
-5.3001	QUARTERS
-5.3001	QUE
-5.3001	QUEEN
-4.8229	QUEEN_S
-3.9576	QUESTION	-0.1484
-5.3001	QUESTIONED
-3.8687	QUESTIONS	-0.1328
-4.4550	QUICK	-0.0206
-4.9990	QUICKER
-4.4550	QUICKLY	-0.1071
-4.2587	QUIET	-0.1557
-5.3001	QUILLS
-4.8229	QUIT
-3.0932	QUITE	-0.2434
-5.3001	QUITTING
-4.3458	R	-0.1215
-4.5219	RACE	-0.1407
-4.9990	RACED	-0.3403
-5.3001	RACES
-4.6980	RACIAL	-0.3382
-4.8229	RAD	-0.1445
-5.3001	RADAR
-4.9990	RADIATION
-4.6980	RADIO
-5.3001	RADIOS
-4.3458	RAGE	-0.1193
-4.6011	RAIL	-0.0542
-4.2587	RAIN	-0.0428
-4.9990	RAINFOREST
-4.4550	RAINING	-0.1071
-4.3970	RAINS	-0.0774
-4.8229	RAINY
-5.3001	RAIN_S
-4.9990	RAISE
-4.9990	RAISING
-5.3001	RAMP
-4.4550	RAN	-0.1597
-4.1539	RANDOM	-0.0603
-4.8229	RANDOMLY
-4.8229	RANGE
-4.8229	RANT
-5.3001	RANTING
-5.3001	RAP
-4.6011	RARE
-4.6011	RARELY	-0.1073
-4.8229	RAS
-4.6011	RASH	-0.2388
-4.4550	RAT	-0.1635
-5.3001	RATE
-5.3001	RATED
-4.1240	RATHER	-0.3026
-5.3001	RATIO
-4.3970	RATIONAL	-0.2023
-4.5219	RATIONALE	-0.0803
-4.6011	RATIONALITY	-0.1050
-4.9990	RATIONALLY
-5.3001	RATIOS
-4.5219	RATS	-0.0343
-5.3001	RAVE
-5.3001	RAVEN
-5.3001	RAVENS
-5.3001	RAVINE
-4.9990	RAW
-4.9990	RAZOR	-0.3460
-4.3970	RE	-0.0106
-4.8229	REA
-4.6980	REACH
-4.6980	REACHED
-4.9990	REACHES
-4.9990	REACT
-5.3001	REACTION
-5.3001	REACTS
-3.5292	READ	-0.3210
-4.9990	READER
-3.9021	READING	-0.0062
-4.9990	READINGS
-5.3001	READS
-4.1240	READY	-0.3962
-3.7090	REAL	-0.0389
-5.3001	REALISATION
-4.0959	REALISE	-0.1609
-4.9990	REALISED
-5.3001	REALISING
-4.6011	REALIST	-0.0542
-4.0213	REALISTIC	-0.1192
-4.6980	REALISTICALLY
-5.3001	REALISTS
-5.3001	REALITIES
-4.2209	REALITY	-0.1181
-5.3001	REALITY_S
-4.3970	REALIZE	-0.3038
-4.8229	REALIZED	-0.1924
-2.2528	REALLY	-0.2994
-5.3001	REALM
-5.3001	REALMS
-5.3001	REARRANGE
-3.8377	REASON	-0.2422
-4.2209	REASONABLE	-0.1642
-4.5219	REASONABLY	-0.0343
-4.4550	REASONS	-0.0737
-5.3001	RECEIPT
-4.8229	RECENT	-0.1980
-3.7090	RECENTLY	-0.1112
-5.3001	RECEPTION
-5.3001	RECEPTIONIST
-5.3001	RECEPTIVE
-5.3001	RECHARGE
-5.3001	RECIPE
-4.9990	RECIPROCAL	-0.2925
-5.3001	RECIPROCITY
-4.9990	RECITE
-4.8229	RECKON
-4.9990	RECOGNISED
-4.4550	RECOGNITION	-0.3265
-4.9990	RECOGNIZE
-5.3001	RECOGNIZING
-4.5219	RECOMMEND
-5.3001	RECOMMENDATION
-5.3001	RECONCILE
-5.3001	RECONSTITUTE
-5.3001	RECONSTITUTED
-5.3001	RECONSTRUCT
-4.3458	RECORD	-0.0564
-4.2209	RECORDED	-0.2070
-5.3001	RECORDER
-3.8851	RECORDING	-0.0845
-4.9990	RECORDINGS	-0.2925
-4.8229	RECORDS	-0.1445
-4.6011	RECOVER	-0.1073
-4.9990	RECRUITMENT
-4.9990	RECYCLE
-3.9021	RED	-0.2401
-4.9990	REDOING
-5.3001	REENACT
-5.3001	REF
-5.3001	REFER
-4.3001	REFERENCE
-4.8229	REFERS	-0.5480
-4.9990	REFLECT
-4.9990	REFLECTIONS	-0.3445
-4.9990	REFRESH
-5.3001	REFRESHED
-5.3001	REFUSE
-4.6980	REGARD	-0.1375
-5.3001	REGARDLESS
-5.3001	REGION
-4.8229	REGRET
-5.3001	REGRETS
-5.3001	REGRETTING
-4.4550	REGULAR	-0.0740
-5.3001	REHAB
-5.3001	REHABILITATION
-4.9990	REHEARSAL
-5.3001	REINSTATED
-5.3001	RELA
-4.6980	RELATE	-0.3312
-4.8229	RELATED
-5.3001	RELATING
-5.3001	RELATIONS
-4.9990	RELATIONSHIPS
-5.3001	RELATIVE
-4.9990	RELATIVES
-4.1240	RELAX	-0.2320
-5.3001	RELAXATION
-4.6011	RELAXED	-0.3970
-5.3001	RELAXES
-4.3458	RELAXING	-0.0490
-5.3001	RELEARN
-5.3001	RELEASE
-5.3001	RELEASED
-5.3001	RELEASES
-5.3001	RELEASING
-4.9990	RELENTLESS
-4.8229	RELEVANT
-5.3001	RELIEF
-5.3001	RELIES
-4.6980	RELIGION
-4.9990	RELY	-0.3445
-5.3001	REMAIN
-5.3001	REMAINING
-5.3001	REMAINS
-5.3001	REMARKABLE
-5.3001	REMARKS
-3.4488	REMEMBER	-0.1853
-4.9990	REMEMBERED
-5.3001	REMEMBERING
-5.3001	REMEMBRANCES
-4.9990	REMIND
-5.3001	REMINDING
-5.3001	REMINDS
-5.3001	REMNANT
-5.3001	REMODELING
-5.3001	REMOTE
-5.3001	REMOTELY
-4.6011	REMOVE	-0.1020
-5.3001	REMOVED
-5.3001	RENAISSANCE
-5.3001	RENALDO
-5.3001	RENEWED
-4.8229	RENOVATE
-5.3001	RENOVATING
-4.6980	RENT
-4.9990	RENTAL
-4.6011	RENTED	-0.2406
-5.3001	REOPENED
-5.3001	REORGANIZE
-4.9990	REPEAT
-4.9990	REPEATEDLY
-5.3001	REPEATING
-5.3001	REPLY
-4.1861	REPORT	-0.1731
-4.9990	REPORTING
-5.3001	REPORTS
-5.3001	REPRESENTING
-4.6980	REPRESENTS	-0.2847
-5.3001	REPRIMANDED
-5.3001	REPROGRAMMED
-4.9990	REPUTATION
-5.3001	REQUEST
-4.9990	REQUIRE
-4.9990	REQUIRED	-0.3390
-5.3001	REQUIREMENT
-4.9990	REQUIREMENTS
-4.6011	REQUIRES
-3.7203	RESEARCH	-0.2036
-5.3001	RESEARCHER
-4.9990	RESEARCHERS
-5.3001	RESIDENT
-5.3001	RESOLUTION
-4.9990	RESOLVE
-5.3001	RESORT
-5.3001	RESOURCES
-4.9990	RESPECT
-5.3001	RESPECTS
-4.6011	RESPOND
-4.6011	RESPONSE
-4.9990	RESPONSIBILITY
-4.9990	RESPONSIBLE	-0.3441
-3.9199	REST	-0.5309
-4.4550	RESTAURANT
-4.6011	RESTAURANTS
-5.3001	RESTFUL
-4.9990	RESULT
-4.4550	RESULTS	-0.1606
-5.3001	RESUME
-4.9990	RETARD
-4.9990	RETARDED
-5.3001	RETARDS
-4.6980	RETIRED
-4.6011	RETURN	-0.0542
-5.3001	RETURNED
-5.3001	RETURNING
-5.3001	REUSE
-5.3001	REVERSE
-5.3001	REVIEW
-4.8229	REVIEWER
-4.9990	REVIEWERS
-5.3001	REVOLT
-5.3001	REVOLUTION
-5.3001	REVOLUTIONS
-4.9990	REWARDING
-5.3001	RHETORICAL
-4.9990	RHINO
-5.3001	RIBS
-4.9990	RICE
-4.8229	RICH
-5.3001	RICHER
-4.6980	RID	-0.5915
-5.3001	RIDDLED
-4.6980	RIDE
-5.3001	RIDER
-5.3001	RIDGE
-3.8851	RIDICULOUS	-0.3200
-5.3001	RIDICULOUSLY
-5.3001	RIDING
-5.3001	RIFLE
-5.3001	RIFLES
-2.6862	RIGHT	-0.4971
-5.3001	RIGHTS
-4.9990	RILED
-5.3001	RIMS
-4.9990	RING
-5.3001	RINGING
-4.6980	RIP	-0.1391
-4.8229	RIPE	-0.1979
-5.3001	RISE
-5.3001	RISING
-4.9990	RISK
-5.3001	RISKY
-5.3001	RIVALRY
-4.5219	RIVER
-4.1861	ROAD	-0.1154
-5.3001	ROADS
-5.3001	ROAST
-4.9990	ROBOTIC
-5.3001	ROBUST
-4.0959	ROCK	-0.1687
-5.3001	ROCKET
-4.5219	ROCKS	-0.0343
-5.3001	ROD
-5.3001	RODDY
-5.3001	RODS
-4.9990	ROLE
-5.3001	ROLES
-4.9990	ROLL
-4.8229	ROLLED
-4.2587	ROLLER	-0.5412
-5.3001	ROLLING
-5.3001	ROLLS
-5.3001	ROMANIAN
-4.6980	RONIN	-0.3355
-4.8229	ROOF	-0.1445
-4.9990	ROOFS
-3.8529	ROOM	-0.0888
-4.1240	ROOMMATE	-0.0672
-4.4550	ROOMMATES	-0.1071
-4.9990	ROOMMATE_S
-4.6011	ROOMS	-0.1927
-5.3001	ROOTED
-4.6980	ROOTS
-4.5219	ROSES
-4.9990	ROTUNDA
-4.5219	ROUGH	-0.0877
-4.9990	ROUGHLY
-3.9990	ROUND	-0.1755
-5.3001	ROUTE
-4.8229	ROUTINE
-4.6980	ROW	-0.2847
-5.3001	ROYAL
-4.8229	RUARI	-0.1980
-4.9990	RUB	-0.3458
-5.3001	RUBBER
-4.3970	RUBBISH	-0.1655
-4.2209	RUDE	-0.2049
-5.3001	RUGBY
-5.3001	RUINED
-4.9990	RUINS
-5.3001	RULE
-4.6980	RULES	-0.0859
-5.3001	RULES_
-5.3001	RUM
-5.3001	RUMOR
-3.9199	RUN	-0.1573
-4.3001	RUNNING	-0.1056
-5.3001	RUNNIN_
-4.4550	RUSH
-4.9990	RUSHED
-4.9990	RUSSIA
-4.1240	RUSSIAN	-0.0779
-4.9990	RUSSIANS
-5.3001	RYAN_S
-3.7203	S	-0.0629
-5.3001	SA
-4.8229	SABER
-5.3001	SACK
-5.3001	SACKS
-3.3458	SAD	-0.3613
-4.9990	SADDER
-5.3001	SADDEST
-5.3001	SADDLE
-4.9990	SADNESS
-4.6980	SAFE	-0.0859
-5.3001	SAFELY
-5.3001	SAFER
-5.3001	SAFETY
-3.3656	SAID	-0.2192
-4.9990	SAIL
-4.8229	SAILING
-5.3001	SAILOR
-4.9990	SAINSBURY_S	-0.3385
-4.8229	SAKE	-0.1938
-5.3001	SAL
-4.9990	SALAD
-4.6980	SALE
-4.9990	SALMON
-4.9990	SALSA
-5.3001	SALT
-4.9990	SALUTE	-0.2925
-4.9990	SALVADORAN	-0.3459
-3.4939	SAME	-0.2321
-5.3001	SAMPLE
-5.3001	SAMPLES
-4.9990	SAMURAI
-5.3001	SAN
-4.4550	SAND	-0.3267
-4.9990	SANDWICH
-5.3001	SANDWICHES
-5.3001	SANDY
-4.8229	SANG
-4.8229	SANTA	-0.1980
-5.3001	SAPS
-4.9990	SARAN
-5.3001	SARCASM
-4.8229	SAT	-0.1976
-5.3001	SATISFYING
-4.0959	SATURDAY	-0.1066
-5.3001	SATURDAY_S
-4.9990	SAUCE
-5.3001	SAUCER
-4.9990	SAUCES
-4.5219	SAVE	-0.0796
-5.3001	SAVVY
-3.5597	SAW	-0.1736
-3.0259	SAY	-0.2502
-3.5841	SAYING	-0.1768
-4.1539	SAYS	-0.0506
-4.9990	SCALE
-5.3001	SCALLOPS
-4.9990	SCAN
-5.3001	SCANDINAVIA
-4.6011	SCANDINAVIAN	-0.2512
-4.6011	SCARE
-5.3001	SCARECROW
-4.8229	SCARED
-4.3001	SCARY	-0.0524
-4.8229	SCENE
-4.9990	SCENERY
-4.8229	SCENES
-4.5219	SCHEDULE
-4.6980	SCHEME
-5.3001	SCHIZOPHRENIA
-4.6980	SCHOLARSHIP	-0.2847
-3.3133	SCHOOL	-0.1995
-4.4550	SCHOOLS
-5.3001	SCHOOL_S
-4.2209	SCIENCE	-0.0757
-4.6980	SCIENCES
-5.3001	SCIENTIST
-4.6011	SCORE	-0.1077
-5.3001	SCORED
-5.3001	SCORES
-5.3001	SCORE_S
-5.3001	SCORN
-4.8229	SCOTCH	-0.1980
-5.3001	SCOTLAND
-5.3001	SCRAP
-4.9990	SCRATCH
-5.3001	SCRATCHES
-5.3001	SCRATCHIN
-4.9990	SCRATCHING
-5.3001	SCREAM
-4.6980	SCREEN	-0.0859
-5.3001	SCREENED
-4.8229	SCREENS	-0.1445
-5.3001	SCREEN_S
-4.5219	SCREW	-0.1960
-4.8229	SCREWED	-0.1970
-4.9990	SCREWS
-5.3001	SCRIPTS
-5.3001	SE
-4.0959	SEA	-0.3457
-5.3001	SEABIRDS
-4.9990	SEAFOOD
-4.8229	SEAGULL	-0.5014
-4.9990	SEAGULLS
-4.8229	SEAL
-4.9990	SEALS
-5.3001	SEARCHING
-4.6011	SEASON	-0.1075
-4.9990	SEASONS
-4.9990	SEAT
-5.3001	SEATS
-5.3001	SEAWEED
-3.8377	SECOND	-0.0947
-4.6980	SECONDS
-4.6980	SECTION	-0.0859
-5.3001	SECTIONED
-4.6980	SECTIONS
-4.9990	SECURE
-4.8229	SECURITY
-5.3001	SEDATED
-2.7057	SEE	-0.5055
-4.0959	SEEING	-0.0298
-3.6980	SEEM	-0.5157
-4.8229	SEEMED	-0.1910
-3.7319	SEEMS	-0.5082
-3.3916	SEEN	-0.3627
-4.8229	SEES
-4.9990	SELDOM
-5.3001	SELECTIVE
-4.3458	SELF	-0.2626
-4.8229	SELFISH
-4.4550	SELL
-4.8229	SELLING	-0.1971
-5.3001	SEMANTIC
-4.5219	SEMANTICS	-0.1413
-4.8229	SEMESTER	-0.1445
-5.3001	SEMI
-4.9990	SEMINAR
-5.3001	SEMINARS
-4.6980	SEND
-5.3001	SENDING
-5.3001	SENILE
-4.1861	SENIOR	-0.1811
-4.9990	SENIORS
-3.7949	SENSE	-0.3212
-4.6980	SENSELESS
-4.9990	SENSES
-3.4740	SENSIBLE	-0.2840
-5.3001	SENSITIVITY
-5.3001	SENSORS
-5.3001	SENSORY
-4.8229	SENT
-4.8229	SENTENCE
-5.3001	SENTENCES
-5.3001	SENTIMEN
-5.3001	SENTIMENT
-5.3001	SENTIMENTAL
-4.3001	SEPARATE	+0.0030
-4.4550	SEPTEMBER	-0.2414
-4.9990	SEQUENCE
-5.3001	SEQUIN
-4.9990	SEQUINNED
-4.8229	SEQUINS
-5.3001	SERENE
-4.5219	SERIES	-0.1901
-4.1240	SERIOUS	-0.5205
-3.7319	SERIOUSLY	-0.3890
-5.3001	SERVANTS
-4.6011	SERVE	-0.0542
-4.6980	SERVICE
-4.9990	SERVICES	-0.2925
-4.6011	SESSION	-0.0542
-3.9199	SET	-0.2130
-4.8229	SETS
-4.3458	SETTING	-0.1820
-5.3001	SETTINGS
-5.3001	SETTLE
-5.3001	SETTLED
-4.6980	SETTLEMENT
-5.3001	SETTLEMENTS
-4.9990	SETTLING
-3.7949	SEVEN	-0.0579
-4.6980	SEVENTEEN	-0.1393
-4.8229	SEVENTEENTH
-5.3001	SEVENTH
-4.6011	SEVENTIES
-4.1240	SEVENTY	-0.1915
-4.6980	SEVERAL
-5.3001	SEVERE
-5.3001	SEVERELY
-5.3001	SEVERITY
-4.9990	SEWAGE
-5.3001	SEWING
-5.3001	SEXY
-4.8229	SH
-4.9990	SHADE
-5.3001	SHADED
-5.3001	SHAKE
-4.1240	SHALL	-0.4131
-4.8229	SHAME
-4.5219	SHAPE	-0.2453
-4.9990	SHAPED
-4.9990	SHAPES
-4.5219	SHARE
-4.9990	SHARING
-4.8229	SHARP
-4.9990	SHAVED	-0.3457
-2.9717	SHE	-0.3372
-5.3001	SHEDDING
-5.3001	SHEDULE
-4.6011	SHEET
-5.3001	SHEETS
-5.3001	SHELL
-5.3001	SHELTER
-5.3001	SHELTERED
-5.3001	SHERIFF
-4.6011	SHE_D
-4.6011	SHE_LL
-3.4193	SHE_S	-0.1757
-4.9990	SHIFT
-4.9990	SHIFTING
-4.8229	SHIFTS
-5.3001	SHIMMY
-4.9990	SHIN	-0.2925
-5.3001	SHINES
-4.8229	SHINGLES
-4.6011	SHINY
-5.3001	SHIP
-4.9990	SHIPPED
-5.3001	SHIPS
-5.3001	SHIPYARD
-4.3458	SHIRT	-0.1215
-5.3001	SHIRTS
-3.9021	SHIT	-0.1722
-4.9990	SHITS
-5.3001	SHITTIE
-5.3001	SHITTY
-4.8229	SHOCKED
-4.8229	SHOE
-4.9990	SHOES
-5.3001	SHOO
-5.3001	SHOOK
-4.8229	SHOOT
-4.5219	SHOOTING
-4.0696	SHOP	-0.0056
-3.7816	SHOPPING	-0.2203
-4.9990	SHOPS
-5.3001	SHORE
-4.0959	SHORT	-0.0896
-5.3001	SHORT-TERM
-5.3001	SHORTCUT
-4.8229	SHORTEST	-0.5549
-4.9990	SHORTS
-4.6011	SHOT	-0.1065
-4.9990	SHOTS
-3.0056	SHOULD	-0.4534
-5.3001	SHOULDERS
-3.7816	SHOULDN_T	-0.3222
-4.8229	SHOULD_VE
-4.6980	SHOUT	-0.3370
-5.3001	SHOUTING
-5.3001	SHOVED
-3.9021	SHOW	-0.1658
-4.3001	SHOWER
-5.3001	SHOWERS
-4.5219	SHOWING
-5.3001	SHOWN
-4.6011	SHOWS
-5.3001	SHOW_S
-5.3001	SHRED
-5.3001	SHRIMP
-5.3001	SHRUG
-4.3001	SHUT	-0.3012
-5.3001	SHUTTING
-5.3001	SHY
-5.3001	SIBERIA
-4.2587	SICK	-0.1377
-5.3001	SICKER
-5.3001	SICKNESS
-3.6666	SIDE	-0.3261
-4.8229	SIDES
-4.9990	SIDEWALK
-5.3001	SIDEWAYS
-5.3001	SIDING
-5.3001	SIGH
-4.8229	SIGHT	-0.1980
-5.3001	SIGHTSEEING
-3.9576	SIGN	-0.1883
-4.9990	SIGNALS
-5.3001	SIGNATURE
-4.6980	SIGNED	-0.1385
-5.3001	SIGNIFICANT
-5.3001	SIGNIFICANTLY
-4.6011	SIGNS
-4.8229	SILENCE	-0.5014
-5.3001	SILICONE
-5.3001	SILL
-5.3001	SILLIEST
-4.1861	SILLY	-0.0256
-5.3001	SILLYNESS
-4.8229	SILVER
-5.3001	SIM
-4.5219	SIMILAR	-0.1905
-4.4550	SIMPLE
-4.6980	SIMPLIFIED	-0.0859
-5.3001	SIMPLY
-5.3001	SIMULATION
-5.3001	SIN
-3.7319	SINCE	-0.2666
-4.6011	SING
-4.6011	SINGER	-0.0542
-4.6980	SINGING
-4.6011	SINGLE
-4.9990	SINK	-0.2925
-5.3001	SIRENS
-4.1539	SISTER	-0.1570
-4.6980	SISTERS
-5.3001	SISTER_S
-3.6768	SIT	-0.3813
-4.9990	SITE
-5.3001	SITES
-4.9990	SITS	-0.3448
-4.9990	SITTIN
-3.8087	SITTING	-0.3740
-4.2209	SITUATION	-0.0348
-4.8229	SITUATIONS
-5.3001	SIVER
-3.6566	SIX	-0.2080
